{"learner":{"attributes":{"best_iteration":"1999","best_score":"0.6196309481175022"},"feature_names":["Beneficiary age","measured_HB_risk_bin","Child order/parity","Number of living child at now","MonthConception","BMI_PW1_Prog","BMI_PW2_Prog","BMI_PW3_Prog","BMI_PW4_Prog","consume_tobacco","Status of current chewing of tobacco","consume_alcohol","RegistrationBucket","counselling_gap_days","ANCBucket","LMPtoINST1","LMPtoINST2","LMPtoINST3","No of ANCs completed","Service received during last ANC: TT Injection given","No. of IFA tablets received/procured in last one month_log1p","No. of calcium tablets consumed in last one month_log1p","Food_Groups_Category","Household_Assets_Score_log1p","toilet_type_clean","water_source_clean","education_clean","Social_Media_Category","Registered for cash transfer scheme: JSY","Registered for cash transfer scheme: RAJHSRI","PMMVY-Number of installment received","JSY-Number of installment received"],"feature_types":["int","c","c","int","c","float","float","float","float","c","c","c","c","float","c","float","float","float","int","c","float","float","c","float","c","c","c","c","c","c","float","float"],"gradient_booster":{"model":{"cats":{"enc":[{"offsets":[],"values":[]},{"offsets":[0,14,30,42,48],"values":[115,101,118,101,114,101,95,97,110,97,101,109,105,97,109,111,100,101,114,97,116,101,95,97,110,97,101,109,105,97,109,105,108,100,95,97,110,97,101,109,105,97,110,111,114,109,97,108]},{"type":15,"values":[1,2]},{"offsets":[],"values":[]},{"offsets":[0,5,11,19,27,34,38,42,47,50,58,65,74],"values":[65,112,114,105,108,65,117,103,117,115,116,68,101,99,101,109,98,101,114,70,101,98,114,117,97,114,121,74,97,110,117,97,114,121,74,117,108,121,74,117,110,101,77,97,114,99,104,77,97,121,78,111,118,101,109,98,101,114,79,99,116,111,98,101,114,83,101,112,116,101,109,98,101,114]},{"offsets":[],"values":[]},{"offsets":[],"values":[]},{"offsets":[],"values":[]},{"offsets":[],"values":[]},{"offsets":[0,1,2,3],"values":[78,79,89]},{"offsets":[0,9,19,28],"values":[69,86,69,82,89,32,68,65,89,78,79,84,32,65,84,32,65,76,76,83,79,77,69,32,68,65,89,83]},{"offsets":[0,1,2,3],"values":[78,79,89]},{"offsets":[0,5,9,12],"values":[69,97,114,108,121,76,97,116,101,77,105,100]},{"offsets":[],"values":[]},{"offsets":[0,5,9,12],"values":[69,97,114,108,121,76,97,116,101,77,105,100]},{"offsets":[],"values":[]},{"offsets":[],"values":[]},{"offsets":[],"values":[]},{"offsets":[],"values":[]},{"offsets":[0,4,6,9],"values":[57,57,57,57,78,111,89,101,115]},{"offsets":[],"values":[]},{"offsets":[],"values":[]},{"offsets":[0,2,4,6,8],"values":[60,52,62,52,62,53,62,54]},{"offsets":[],"values":[]},{"offsets":[0,15,34,54,83],"values":[73,109,112,114,111,118,101,100,32,116,111,105,108,101,116,80,105,116,32,108,97,116,114,105,110,101,32,40,98,97,115,105,99,41,85,110,105,109,112,114,111,118,101,100,32,47,32,117,110,107,110,111,119,110,78,111,32,102,97,99,105,108,105,116,121,32,47,32,111,112,101,110,32,100,101,102,101,99,97,116,105,111,110]},{"offsets":[0,30,61,75,101,118],"values":[80,105,112,101,100,32,115,117,112,112,108,121,32,40,104,111,109,101,47,121,97,114,100,47,115,116,97,110,100,41,71,114,111,117,110,100,119,97,116,101,114,32,-30,-128,-109,32,104,97,110,100,112,117,109,112,47,98,111,114,101,119,101,108,108,80,114,111,116,101,99,116,101,100,32,119,101,108,108,83,117,114,102,97,99,101,47,85,110,112,114,111,116,101,99,116,101,100,32,115,111,117,114,99,101,68,101,108,105,118,101,114,101,100,32,47,32,111,116,104]},{"offsets":[0,12,25,37,53,69],"values":[78,111,32,115,99,104,111,111,108,105,110,103,80,114,105,109,97,114,121,32,40,49,-30,-128,-109,53,41,77,105,100,100,108,101,32,40,54,-30,-128,-109,56,41,83,101,99,111,110,100,97,114,121,32,40,57,-30,-128,-109,49,50,41,71,114,97,100,117,97,116,101,32,38]},{"offsets":[0,4,7,13],"values":[72,105,103,104,76,111,119,77,101,100,105,117,109]},{"offsets":[0,2,5],"values":[78,111,89,101,115]},{"offsets":[0,2,5],"values":[78,111,89,101,115]},{"offsets":[],"values":[]},{"offsets":[],"values":[]}],"feature_segments":[0,0,4,6,6,18,18,18,18,18,21,24,27,30,30,33,33,33,33,33,36,36,36,40,40,44,49,54,57,59,61,61,61],"sorted_idx":[2,1,3,0,0,1,0,1,2,3,4,5,6,7,8,9,10,11,0,1,2,0,1,2,0,1,2,0,1,2,0,1,2,0,1,2,0,1,2,3,0,3,1,2,1,0,4,2,3,3,4,2,0,1,0,1,2,0,1,0,1]},"gbtree_model_param":{"num_parallel_tree":"1","num_trees":"2000"},"iteration_indptr":[0,1,2,3,4,5,6,7,8,9,10,11,12,13,14,15,16,17,18,19,20,21,22,23,24,25,26,27,28,29,30,31,32,33,34,35,36,37,38,39,40,41,42,43,44,45,46,47,48,49,50,51,52,53,54,55,56,57,58,59,60,61,62,63,64,65,66,67,68,69,70,71,72,73,74,75,76,77,78,79,80,81,82,83,84,85,86,87,88,89,90,91,92,93,94,95,96,97,98,99,100,101,102,103,104,105,106,107,108,109,110,111,112,113,114,115,116,117,118,119,120,121,122,123,124,125,126,127,128,129,130,131,132,133,134,135,136,137,138,139,140,141,142,143,144,145,146,147,148,149,150,151,152,153,154,155,156,157,158,159,160,161,162,163,164,165,166,167,168,169,170,171,172,173,174,175,176,177,178,179,180,181,182,183,184,185,186,187,188,189,190,191,192,193,194,195,196,197,198,199,200,201,202,203,204,205,206,207,208,209,210,211,212,213,214,215,216,217,218,219,220,221,222,223,224,225,226,227,228,229,230,231,232,233,234,235,236,237,238,239,240,241,242,243,244,245,246,247,248,249,250,251,252,253,254,255,256,257,258,259,260,261,262,263,264,265,266,267,268,269,270,271,272,273,274,275,276,277,278,279,280,281,282,283,284,285,286,287,288,289,290,291,292,293,294,295,296,297,298,299,300,301,302,303,304,305,306,307,308,309,310,311,312,313,314,315,316,317,318,319,320,321,322,323,324,325,326,327,328,329,330,331,332,333,334,335,336,337,338,339,340,341,342,343,344,345,346,347,348,349,350,351,352,353,354,355,356,357,358,359,360,361,362,363,364,365,366,367,368,369,370,371,372,373,374,375,376,377,378,379,380,381,382,383,384,385,386,387,388,389,390,391,392,393,394,395,396,397,398,399,400,401,402,403,404,405,406,407,408,409,410,411,412,413,414,415,416,417,418,419,420,421,422,423,424,425,426,427,428,429,430,431,432,433,434,435,436,437,438,439,440,441,442,443,444,445,446,447,448,449,450,451,452,453,454,455,456,457,458,459,460,461,462,463,464,465,466,467,468,469,470,471,472,473,474,475,476,477,478,479,480,481,482,483,484,485,486,487,488,489,490,491,492,493,494,495,496,497,498,499,500,501,502,503,504,505,506,507,508,509,510,511,512,513,514,515,516,517,518,519,520,521,522,523,524,525,526,527,528,529,530,531,532,533,534,535,536,537,538,539,540,541,542,543,544,545,546,547,548,549,550,551,552,553,554,555,556,557,558,559,560,561,562,563,564,565,566,567,568,569,570,571,572,573,574,575,576,577,578,579,580,581,582,583,584,585,586,587,588,589,590,591,592,593,594,595,596,597,598,599,600,601,602,603,604,605,606,607,608,609,610,611,612,613,614,615,616,617,618,619,620,621,622,623,624,625,626,627,628,629,630,631,632,633,634,635,636,637,638,639,640,641,642,643,644,645,646,647,648,649,650,651,652,653,654,655,656,657,658,659,660,661,662,663,664,665,666,667,668,669,670,671,672,673,674,675,676,677,678,679,680,681,682,683,684,685,686,687,688,689,690,691,692,693,694,695,696,697,698,699,700,701,702,703,704,705,706,707,708,709,710,711,712,713,714,715,716,717,718,719,720,721,722,723,724,725,726,727,728,729,730,731,732,733,734,735,736,737,738,739,740,741,742,743,744,745,746,747,748,749,750,751,752,753,754,755,756,757,758,759,760,761,762,763,764,765,766,767,768,769,770,771,772,773,774,775,776,777,778,779,780,781,782,783,784,785,786,787,788,789,790,791,792,793,794,795,796,797,798,799,800,801,802,803,804,805,806,807,808,809,810,811,812,813,814,815,816,817,818,819,820,821,822,823,824,825,826,827,828,829,830,831,832,833,834,835,836,837,838,839,840,841,842,843,844,845,846,847,848,849,850,851,852,853,854,855,856,857,858,859,860,861,862,863,864,865,866,867,868,869,870,871,872,873,874,875,876,877,878,879,880,881,882,883,884,885,886,887,888,889,890,891,892,893,894,895,896,897,898,899,900,901,902,903,904,905,906,907,908,909,910,911,912,913,914,915,916,917,918,919,920,921,922,923,924,925,926,927,928,929,930,931,932,933,934,935,936,937,938,939,940,941,942,943,944,945,946,947,948,949,950,951,952,953,954,955,956,957,958,959,960,961,962,963,964,965,966,967,968,969,970,971,972,973,974,975,976,977,978,979,980,981,982,983,984,985,986,987,988,989,990,991,992,993,994,995,996,997,998,999,1000,1001,1002,1003,1004,1005,1006,1007,1008,1009,1010,1011,1012,1013,1014,1015,1016,1017,1018,1019,1020,1021,1022,1023,1024,1025,1026,1027,1028,1029,1030,1031,1032,1033,1034,1035,1036,1037,1038,1039,1040,1041,1042,1043,1044,1045,1046,1047,1048,1049,1050,1051,1052,1053,1054,1055,1056,1057,1058,1059,1060,1061,1062,1063,1064,1065,1066,1067,1068,1069,1070,1071,1072,1073,1074,1075,1076,1077,1078,1079,1080,1081,1082,1083,1084,1085,1086,1087,1088,1089,1090,1091,1092,1093,1094,1095,1096,1097,1098,1099,1100,1101,1102,1103,1104,1105,1106,1107,1108,1109,1110,1111,1112,1113,1114,1115,1116,1117,1118,1119,1120,1121,1122,1123,1124,1125,1126,1127,1128,1129,1130,1131,1132,1133,1134,1135,1136,1137,1138,1139,1140,1141,1142,1143,1144,1145,1146,1147,1148,1149,1150,1151,1152,1153,1154,1155,1156,1157,1158,1159,1160,1161,1162,1163,1164,1165,1166,1167,1168,1169,1170,1171,1172,1173,1174,1175,1176,1177,1178,1179,1180,1181,1182,1183,1184,1185,1186,1187,1188,1189,1190,1191,1192,1193,1194,1195,1196,1197,1198,1199,1200,1201,1202,1203,1204,1205,1206,1207,1208,1209,1210,1211,1212,1213,1214,1215,1216,1217,1218,1219,1220,1221,1222,1223,1224,1225,1226,1227,1228,1229,1230,1231,1232,1233,1234,1235,1236,1237,1238,1239,1240,1241,1242,1243,1244,1245,1246,1247,1248,1249,1250,1251,1252,1253,1254,1255,1256,1257,1258,1259,1260,1261,1262,1263,1264,1265,1266,1267,1268,1269,1270,1271,1272,1273,1274,1275,1276,1277,1278,1279,1280,1281,1282,1283,1284,1285,1286,1287,1288,1289,1290,1291,1292,1293,1294,1295,1296,1297,1298,1299,1300,1301,1302,1303,1304,1305,1306,1307,1308,1309,1310,1311,1312,1313,1314,1315,1316,1317,1318,1319,1320,1321,1322,1323,1324,1325,1326,1327,1328,1329,1330,1331,1332,1333,1334,1335,1336,1337,1338,1339,1340,1341,1342,1343,1344,1345,1346,1347,1348,1349,1350,1351,1352,1353,1354,1355,1356,1357,1358,1359,1360,1361,1362,1363,1364,1365,1366,1367,1368,1369,1370,1371,1372,1373,1374,1375,1376,1377,1378,1379,1380,1381,1382,1383,1384,1385,1386,1387,1388,1389,1390,1391,1392,1393,1394,1395,1396,1397,1398,1399,1400,1401,1402,1403,1404,1405,1406,1407,1408,1409,1410,1411,1412,1413,1414,1415,1416,1417,1418,1419,1420,1421,1422,1423,1424,1425,1426,1427,1428,1429,1430,1431,1432,1433,1434,1435,1436,1437,1438,1439,1440,1441,1442,1443,1444,1445,1446,1447,1448,1449,1450,1451,1452,1453,1454,1455,1456,1457,1458,1459,1460,1461,1462,1463,1464,1465,1466,1467,1468,1469,1470,1471,1472,1473,1474,1475,1476,1477,1478,1479,1480,1481,1482,1483,1484,1485,1486,1487,1488,1489,1490,1491,1492,1493,1494,1495,1496,1497,1498,1499,1500,1501,1502,1503,1504,1505,1506,1507,1508,1509,1510,1511,1512,1513,1514,1515,1516,1517,1518,1519,1520,1521,1522,1523,1524,1525,1526,1527,1528,1529,1530,1531,1532,1533,1534,1535,1536,1537,1538,1539,1540,1541,1542,1543,1544,1545,1546,1547,1548,1549,1550,1551,1552,1553,1554,1555,1556,1557,1558,1559,1560,1561,1562,1563,1564,1565,1566,1567,1568,1569,1570,1571,1572,1573,1574,1575,1576,1577,1578,1579,1580,1581,1582,1583,1584,1585,1586,1587,1588,1589,1590,1591,1592,1593,1594,1595,1596,1597,1598,1599,1600,1601,1602,1603,1604,1605,1606,1607,1608,1609,1610,1611,1612,1613,1614,1615,1616,1617,1618,1619,1620,1621,1622,1623,1624,1625,1626,1627,1628,1629,1630,1631,1632,1633,1634,1635,1636,1637,1638,1639,1640,1641,1642,1643,1644,1645,1646,1647,1648,1649,1650,1651,1652,1653,1654,1655,1656,1657,1658,1659,1660,1661,1662,1663,1664,1665,1666,1667,1668,1669,1670,1671,1672,1673,1674,1675,1676,1677,1678,1679,1680,1681,1682,1683,1684,1685,1686,1687,1688,1689,1690,1691,1692,1693,1694,1695,1696,1697,1698,1699,1700,1701,1702,1703,1704,1705,1706,1707,1708,1709,1710,1711,1712,1713,1714,1715,1716,1717,1718,1719,1720,1721,1722,1723,1724,1725,1726,1727,1728,1729,1730,1731,1732,1733,1734,1735,1736,1737,1738,1739,1740,1741,1742,1743,1744,1745,1746,1747,1748,1749,1750,1751,1752,1753,1754,1755,1756,1757,1758,1759,1760,1761,1762,1763,1764,1765,1766,1767,1768,1769,1770,1771,1772,1773,1774,1775,1776,1777,1778,1779,1780,1781,1782,1783,1784,1785,1786,1787,1788,1789,1790,1791,1792,1793,1794,1795,1796,1797,1798,1799,1800,1801,1802,1803,1804,1805,1806,1807,1808,1809,1810,1811,1812,1813,1814,1815,1816,1817,1818,1819,1820,1821,1822,1823,1824,1825,1826,1827,1828,1829,1830,1831,1832,1833,1834,1835,1836,1837,1838,1839,1840,1841,1842,1843,1844,1845,1846,1847,1848,1849,1850,1851,1852,1853,1854,1855,1856,1857,1858,1859,1860,1861,1862,1863,1864,1865,1866,1867,1868,1869,1870,1871,1872,1873,1874,1875,1876,1877,1878,1879,1880,1881,1882,1883,1884,1885,1886,1887,1888,1889,1890,1891,1892,1893,1894,1895,1896,1897,1898,1899,1900,1901,1902,1903,1904,1905,1906,1907,1908,1909,1910,1911,1912,1913,1914,1915,1916,1917,1918,1919,1920,1921,1922,1923,1924,1925,1926,1927,1928,1929,1930,1931,1932,1933,1934,1935,1936,1937,1938,1939,1940,1941,1942,1943,1944,1945,1946,1947,1948,1949,1950,1951,1952,1953,1954,1955,1956,1957,1958,1959,1960,1961,1962,1963,1964,1965,1966,1967,1968,1969,1970,1971,1972,1973,1974,1975,1976,1977,1978,1979,1980,1981,1982,1983,1984,1985,1986,1987,1988,1989,1990,1991,1992,1993,1994,1995,1996,1997,1998,1999,2000],"tree_info":[0,0,0,0,0,0,0,0,0,0,0,0,0,0,0,0,0,0,0,0,0,0,0,0,0,0,0,0,0,0,0,0,0,0,0,0,0,0,0,0,0,0,0,0,0,0,0,0,0,0,0,0,0,0,0,0,0,0,0,0,0,0,0,0,0,0,0,0,0,0,0,0,0,0,0,0,0,0,0,0,0,0,0,0,0,0,0,0,0,0,0,0,0,0,0,0,0,0,0,0,0,0,0,0,0,0,0,0,0,0,0,0,0,0,0,0,0,0,0,0,0,0,0,0,0,0,0,0,0,0,0,0,0,0,0,0,0,0,0,0,0,0,0,0,0,0,0,0,0,0,0,0,0,0,0,0,0,0,0,0,0,0,0,0,0,0,0,0,0,0,0,0,0,0,0,0,0,0,0,0,0,0,0,0,0,0,0,0,0,0,0,0,0,0,0,0,0,0,0,0,0,0,0,0,0,0,0,0,0,0,0,0,0,0,0,0,0,0,0,0,0,0,0,0,0,0,0,0,0,0,0,0,0,0,0,0,0,0,0,0,0,0,0,0,0,0,0,0,0,0,0,0,0,0,0,0,0,0,0,0,0,0,0,0,0,0,0,0,0,0,0,0,0,0,0,0,0,0,0,0,0,0,0,0,0,0,0,0,0,0,0,0,0,0,0,0,0,0,0,0,0,0,0,0,0,0,0,0,0,0,0,0,0,0,0,0,0,0,0,0,0,0,0,0,0,0,0,0,0,0,0,0,0,0,0,0,0,0,0,0,0,0,0,0,0,0,0,0,0,0,0,0,0,0,0,0,0,0,0,0,0,0,0,0,0,0,0,0,0,0,0,0,0,0,0,0,0,0,0,0,0,0,0,0,0,0,0,0,0,0,0,0,0,0,0,0,0,0,0,0,0,0,0,0,0,0,0,0,0,0,0,0,0,0,0,0,0,0,0,0,0,0,0,0,0,0,0,0,0,0,0,0,0,0,0,0,0,0,0,0,0,0,0,0,0,0,0,0,0,0,0,0,0,0,0,0,0,0,0,0,0,0,0,0,0,0,0,0,0,0,0,0,0,0,0,0,0,0,0,0,0,0,0,0,0,0,0,0,0,0,0,0,0,0,0,0,0,0,0,0,0,0,0,0,0,0,0,0,0,0,0,0,0,0,0,0,0,0,0,0,0,0,0,0,0,0,0,0,0,0,0,0,0,0,0,0,0,0,0,0,0,0,0,0,0,0,0,0,0,0,0,0,0,0,0,0,0,0,0,0,0,0,0,0,0,0,0,0,0,0,0,0,0,0,0,0,0,0,0,0,0,0,0,0,0,0,0,0,0,0,0,0,0,0,0,0,0,0,0,0,0,0,0,0,0,0,0,0,0,0,0,0,0,0,0,0,0,0,0,0,0,0,0,0,0,0,0,0,0,0,0,0,0,0,0,0,0,0,0,0,0,0,0,0,0,0,0,0,0,0,0,0,0,0,0,0,0,0,0,0,0,0,0,0,0,0,0,0,0,0,0,0,0,0,0,0,0,0,0,0,0,0,0,0,0,0,0,0,0,0,0,0,0,0,0,0,0,0,0,0,0,0,0,0,0,0,0,0,0,0,0,0,0,0,0,0,0,0,0,0,0,0,0,0,0,0,0,0,0,0,0,0,0,0,0,0,0,0,0,0,0,0,0,0,0,0,0,0,0,0,0,0,0,0,0,0,0,0,0,0,0,0,0,0,0,0,0,0,0,0,0,0,0,0,0,0,0,0,0,0,0,0,0,0,0,0,0,0,0,0,0,0,0,0,0,0,0,0,0,0,0,0,0,0,0,0,0,0,0,0,0,0,0,0,0,0,0,0,0,0,0,0,0,0,0,0,0,0,0,0,0,0,0,0,0,0,0,0,0,0,0,0,0,0,0,0,0,0,0,0,0,0,0,0,0,0,0,0,0,0,0,0,0,0,0,0,0,0,0,0,0,0,0,0,0,0,0,0,0,0,0,0,0,0,0,0,0,0,0,0,0,0,0,0,0,0,0,0,0,0,0,0,0,0,0,0,0,0,0,0,0,0,0,0,0,0,0,0,0,0,0,0,0,0,0,0,0,0,0,0,0,0,0,0,0,0,0,0,0,0,0,0,0,0,0,0,0,0,0,0,0,0,0,0,0,0,0,0,0,0,0,0,0,0,0,0,0,0,0,0,0,0,0,0,0,0,0,0,0,0,0,0,0,0,0,0,0,0,0,0,0,0,0,0,0,0,0,0,0,0,0,0,0,0,0,0,0,0,0,0,0,0,0,0,0,0,0,0,0,0,0,0,0,0,0,0,0,0,0,0,0,0,0,0,0,0,0,0,0,0,0,0,0,0,0,0,0,0,0,0,0,0,0,0,0,0,0,0,0,0,0,0,0,0,0,0,0,0,0,0,0,0,0,0,0,0,0,0,0,0,0,0,0,0,0,0,0,0,0,0,0,0,0,0,0,0,0,0,0,0,0,0,0,0,0,0,0,0,0,0,0,0,0,0,0,0,0,0,0,0,0,0,0,0,0,0,0,0,0,0,0,0,0,0,0,0,0,0,0,0,0,0,0,0,0,0,0,0,0,0,0,0,0,0,0,0,0,0,0,0,0,0,0,0,0,0,0,0,0,0,0,0,0,0,0,0,0,0,0,0,0,0,0,0,0,0,0,0,0,0,0,0,0,0,0,0,0,0,0,0,0,0,0,0,0,0,0,0,0,0,0,0,0,0,0,0,0,0,0,0,0,0,0,0,0,0,0,0,0,0,0,0,0,0,0,0,0,0,0,0,0,0,0,0,0,0,0,0,0,0,0,0,0,0,0,0,0,0,0,0,0,0,0,0,0,0,0,0,0,0,0,0,0,0,0,0,0,0,0,0,0,0,0,0,0,0,0,0,0,0,0,0,0,0,0,0,0,0,0,0,0,0,0,0,0,0,0,0,0,0,0,0,0,0,0,0,0,0,0,0,0,0,0,0,0,0,0,0,0,0,0,0,0,0,0,0,0,0,0,0,0,0,0,0,0,0,0,0,0,0,0,0,0,0,0,0,0,0,0,0,0,0,0,0,0,0,0,0,0,0,0,0,0,0,0,0,0,0,0,0,0,0,0,0,0,0,0,0,0,0,0,0,0,0,0,0,0,0,0,0,0,0,0,0,0,0,0,0,0,0,0,0,0,0,0,0,0,0,0,0,0,0,0,0,0,0,0,0,0,0,0,0,0,0,0,0,0,0,0,0,0,0,0,0,0,0,0,0,0,0,0,0,0,0,0,0,0,0,0,0,0,0,0,0,0,0,0,0,0,0,0,0,0,0,0,0,0,0,0,0,0,0,0,0,0,0,0,0,0,0,0,0,0,0,0,0,0,0,0,0,0,0,0,0,0,0,0,0,0,0,0,0,0,0,0,0,0,0,0,0,0,0,0,0,0,0,0,0,0,0,0,0,0,0,0,0,0,0,0,0,0,0,0,0,0,0,0,0,0,0,0,0,0,0,0,0,0,0,0,0,0,0,0,0,0,0,0,0,0,0,0,0,0,0,0,0,0,0,0,0,0,0,0,0,0,0,0,0,0,0,0,0,0,0,0,0,0,0,0,0,0,0,0,0,0,0,0,0,0,0,0,0,0,0,0,0,0,0,0,0,0,0,0,0,0,0,0,0,0,0,0,0,0,0,0,0,0,0,0,0,0,0,0,0,0,0,0,0,0,0,0,0,0,0,0,0,0,0,0,0,0,0,0,0,0,0,0,0,0,0,0,0,0,0,0,0,0,0,0,0,0,0,0,0,0,0,0,0,0,0,0,0,0,0,0,0,0,0,0,0,0,0,0,0,0,0,0,0,0,0,0,0,0,0,0,0,0,0,0,0,0,0,0,0,0,0,0,0,0,0,0,0,0,0,0,0,0,0,0,0,0,0,0,0,0,0,0,0,0,0,0,0,0,0,0,0,0,0,0,0,0,0,0,0,0,0,0,0,0,0,0,0,0,0,0,0,0,0,0,0,0,0,0,0,0,0,0,0,0,0,0,0,0,0,0,0,0,0,0,0,0,0,0,0,0,0,0,0,0,0,0,0,0,0,0,0,0,0,0,0,0,0,0,0,0,0,0,0,0,0,0,0,0,0,0,0,0,0,0,0,0,0,0,0,0,0,0,0,0,0,0,0,0,0,0,0,0,0,0,0,0,0,0,0,0,0,0,0,0,0,0,0,0,0,0,0,0,0,0,0,0,0,0,0,0,0,0,0,0,0,0,0,0,0,0,0,0,0,0,0,0,0,0,0,0,0,0,0,0,0,0,0,0,0,0,0,0,0,0,0,0,0,0,0,0,0,0,0,0,0,0,0,0,0,0,0,0,0,0,0,0,0,0,0,0,0,0,0,0,0,0,0,0,0,0,0,0,0,0,0,0,0,0,0,0,0,0,0,0,0,0,0,0,0,0,0,0,0,0,0,0,0,0,0,0,0,0,0,0,0,0,0,0,0,0,0,0,0,0,0],"trees":[{"base_weights":[7.39391E-3,4.9594525E-2,-6.268778E-1,1.4738469E-1,-1.3303445E-1,-5.496597E-1,-1.1102829E0,3.6427775E-1,1.0010383E-1,7.625009E-2,-1.8618083E-1,-4.4449672E-1,-9.388209E-3,-1.3758171E-2,-6.5527433E-3,3.7672776E-3,-5.90764E-4,1.2140607E-3,-2.5676584E-3,1.2742932E-3,-4.8744096E-3,-1.2074456E-3,-5.0229393E-3,2.47823E-3,-4.9134386E-3],"categories":[3,4,0,1,3,4,5,6,8,9,10,11,0,1,9],"categories_nodes":[1,4,6],"categories_segments":[0,2,12],"categories_sizes":[2,10,3],"default_left":[1,1,1,0,1,0,1,0,0,0,0,0,0,0,0,0,0,0,0,0,0,0,0,0,0],"id":0,"left_children":[1,3,5,7,9,11,13,15,17,19,21,23,-1,-1,-1,-1,-1,-1,-1,-1,-1,-1,-1,-1,-1],"loss_changes":[1.3391722E2,8.418056E1,9.979416E0,3.1046806E1,1.835021E1,9.695595E0,2.9349518E0,3.1966476E0,1.9072992E1,9.111885E0,2.6507305E1,7.225712E0,0E0,0E0,0E0,0E0,0E0,0E0,0E0,0E0,0E0,0E0,0E0,0E0,0E0],"parents":[2147483647,0,0,1,1,2,2,3,3,4,4,5,5,6,6,7,7,8,8,9,9,10,10,11,11],"right_children":[2,4,6,8,10,12,14,16,18,20,22,24,-1,-1,-1,-1,-1,-1,-1,-1,-1,-1,-1,-1,-1],"split_conditions":[2.3244595E1,1E-45,2.523634E1,1.8467636E1,1E-45,2.7055151E1,1E-45,2.5839975E0,2.442347E0,2.5055258E0,2.3513753E0,3.4339871E0,-9.388209E-3,-1.3758171E-2,-6.5527433E-3,3.7672776E-3,-5.90764E-4,1.2140607E-3,-2.5676584E-3,1.2742932E-3,-4.8744096E-3,-1.2074456E-3,-5.0229393E-3,2.47823E-3,-4.9134386E-3],"split_indices":[6,26,5,6,4,6,4,23,23,23,23,20,0,0,0,0,0,0,0,0,0,0,0,0,0],"split_type":[0,1,0,0,1,0,1,0,0,0,0,0,0,0,0,0,0,0,0,0,0,0,0,0,0],"sum_hessian":[5.024682E3,4.7127124E3,3.119696E2,3.0728223E3,1.6398901E3,2.7080228E2,4.116733E1,5.4616486E2,2.5266572E3,3.2829202E2,1.3115981E3,2.1523137E2,5.557091E1,2.4595736E1,1.6571594E1,5.328578E2,1.3307116E1,2.3869824E3,1.3967487E2,3.0259982E2,2.5692202E1,1.0892896E3,2.2230856E2,1.2285408E1,2.0294597E2],"tree_param":{"num_deleted":"0","num_feature":"32","num_nodes":"25","size_leaf_vector":"1"}},{"base_weights":[-1.6665308E-2,5.1644854E-2,-3.9973974E-1,1.7621665E-1,-8.510311E-2,-2.4463645E-1,-6.0684544E-1,2.8540573E-1,8.7786786E-2,1.7927939E-1,-1.4424546E-1,-1.7317662E-1,-8.618865E-1,-1.2663581E-2,-5.734895E-1,3.612942E-3,1.1755597E-3,4.9297945E-3,5.274025E-4,8.193636E-3,1.2094224E-3,-6.7491306E-4,-2.4302085E-3,-1.3433173E-4,-3.3243538E-3,-4.264969E-3,-1.1129673E-2,-6.1528194E-3,-6.851994E-4],"categories":[2,3,4,1,2,3,4,3,4],"categories_nodes":[3,4,10],"categories_segments":[0,3,7],"categories_sizes":[3,4,2],"default_left":[1,0,1,1,1,0,0,1,0,0,1,0,0,0,0,0,0,0,0,0,0,0,0,0,0,0,0,0,0],"id":1,"left_children":[1,3,5,7,9,11,13,15,17,19,21,23,25,-1,27,-1,-1,-1,-1,-1,-1,-1,-1,-1,-1,-1,-1,-1,-1],"loss_changes":[1.3203706E2,7.280774E1,2.368248E1,2.1231995E1,3.172336E1,1.8349535E1,5.28714E0,1.2210381E1,1.7082752E1,1.2807721E1,1.2296238E1,9.712515E0,3.2820053E0,0E0,5.861206E0,0E0,0E0,0E0,0E0,0E0,0E0,0E0,0E0,0E0,0E0,0E0,0E0,0E0,0E0],"parents":[2147483647,0,0,1,1,2,2,3,3,4,4,5,5,6,6,7,7,8,8,9,9,10,10,11,11,12,12,14,14],"right_children":[2,4,6,8,10,12,14,16,18,20,22,24,26,-1,28,-1,-1,-1,-1,-1,-1,-1,-1,-1,-1,-1,-1,-1,-1],"split_conditions":[2.1208448E1,2.3E1,2.3733238E1,1E-45,1E-45,2.4690405E1,5.06E2,1.8426535E1,1.6824226E1,1.754309E1,1E-45,2E0,2E0,-1.2663581E-2,1.15E2,3.612942E-3,1.1755597E-3,4.9297945E-3,5.274025E-4,8.193636E-3,1.2094224E-3,-6.7491306E-4,-2.4302085E-3,-1.3433173E-4,-3.3243538E-3,-4.264969E-3,-1.1129673E-2,-6.1528194E-3,-6.851994E-4],"split_indices":[6,0,7,26,26,6,15,6,6,6,26,3,3,0,13,0,0,0,0,0,0,0,0,0,0,0,0,0,0],"split_type":[0,0,0,1,1,0,0,0,0,0,1,0,0,0,0,0,0,0,0,0,0,0,0,0,0,0,0,0,0],"sum_hessian":[5.0324487E3,4.2686567E3,7.637923E2,2.2376023E3,2.0310543E3,4.3949838E2,3.2429395E2,9.9620465E2,1.2413976E3,3.6819473E2,1.6628596E3,3.9535995E2,4.4138428E1,1.4151024E1,3.101429E2,6.819232E2,3.1428143E2,9.654321E1,1.1448544E3,2.9311554E1,3.3888318E2,9.414443E2,7.2141534E2,2.0051982E2,1.9484013E2,1.7610498E1,2.6527927E1,2.846058E2,2.5537117E1],"tree_param":{"num_deleted":"0","num_feature":"32","num_nodes":"29","size_leaf_vector":"1"}},{"base_weights":[-3.491822E-3,1.3701163E-1,-1.8552299E-1,2.273918E-1,1.7332664E-2,-7.690319E-2,-4.8752677E-1,2.9831067E-1,-6.1118007E-2,4.109019E-2,-4.552699E-1,-1.7795684E-2,-4.4158822E-1,-3.214646E-1,-7.832904E-1,5.8181654E-3,2.8570634E-3,-2.2817827E-3,1.2531725E-3,7.9911324E-4,-9.501412E-4,-7.288162E-3,-8.5752126E-4,6.282726E-4,-2.558236E-3,-2.7074227E-3,-7.1479003E-3,-9.77362E-4,-4.514961E-3,-9.5667E-3,-5.762058E-3],"categories":[0],"categories_nodes":[0],"categories_segments":[0],"categories_sizes":[1],"default_left":[1,0,0,1,1,1,1,0,1,1,0,0,0,0,1,0,0,0,0,0,0,0,0,0,0,0,0,0,0,0,0],"id":2,"left_children":[1,3,5,7,9,11,13,15,17,19,21,23,25,27,29,-1,-1,-1,-1,-1,-1,-1,-1,-1,-1,-1,-1,-1,-1,-1,-1],"loss_changes":[1.2945796E2,3.060997E1,7.184139E1,3.3392853E1,1.3419915E1,3.4586468E1,2.7450089E1,3.7887268E0,9.975007E0,6.1941714E0,4.942235E0,2.7087646E1,9.486488E0,1.0346569E1,5.8901825E0,0E0,0E0,0E0,0E0,0E0,0E0,0E0,0E0,0E0,0E0,0E0,0E0,0E0,0E0,0E0,0E0],"parents":[2147483647,0,0,1,1,2,2,3,3,4,4,5,5,6,6,7,7,8,8,9,9,10,10,11,11,12,12,13,13,14,14],"right_children":[2,4,6,8,10,12,14,16,18,20,22,24,26,28,30,-1,-1,-1,-1,-1,-1,-1,-1,-1,-1,-1,-1,-1,-1,-1,-1],"split_conditions":[1E-45,2.3E1,2.6E1,2.1082813E1,2.4034407E1,2.311111E1,1.9723866E1,1.8E1,2.4849067E0,3.0445225E0,2.6E1,2.2772672E0,2.2512918E0,1.7491999E0,2.6390574E0,5.8181654E-3,2.8570634E-3,-2.2817827E-3,1.2531725E-3,7.9911324E-4,-9.501412E-4,-7.288162E-3,-8.5752126E-4,6.282726E-4,-2.558236E-3,-2.7074227E-3,-7.1479003E-3,-9.77362E-4,-4.514961E-3,-9.5667E-3,-5.762058E-3],"split_indices":[24,0,0,8,8,8,8,0,21,21,0,23,23,23,21,0,0,0,0,0,0,0,0,0,0,0,0,0,0,0,0],"split_type":[1,0,0,0,0,0,0,0,0,0,0,0,0,0,0,0,0,0,0,0,0,0,0,0,0,0,0,0,0,0,0],"sum_hessian":[5.059779E3,2.8525244E3,2.2072544E3,1.6204298E3,1.2320945E3,1.6258271E3,5.8142725E2,1.3034847E3,3.169451E2,1.1751455E3,5.6948986E1,1.4014373E3,2.2438988E2,3.7453772E2,2.0688948E2,5.2088253E1,1.2513965E3,1.699861E2,1.4695898E2,9.2006586E2,2.5507967E2,3.1163412E1,2.5785576E1,1.043722E3,3.5771512E2,1.4032085E2,8.406902E1,1.4050204E2,2.3403569E2,1.09960724E2,9.6928764E1],"tree_param":{"num_deleted":"0","num_feature":"32","num_nodes":"31","size_leaf_vector":"1"}},{"base_weights":[-1.41495485E-2,3.9431803E-2,-5.14603E-1,1.2352404E-1,-1.2379234E-1,-1.9729042E-1,-6.2290937E-1,1.549473E-1,-7.494168E-2,1.8012075E-1,-1.7729104E-1,-1.0336469E-1,-1.1512204E-2,-2.34647E-1,-7.554036E-1,-2.2308414E-3,1.7308383E-3,1.5000335E-3,-1.8768968E-3,4.2393163E-4,7.7940053E-3,-1.0786282E-3,-3.3802395E-3,7.402201E-4,-2.9827838E-3,-0E0,-5.158561E-3,-8.257433E-3,-1.1234804E-3],"categories":[3,4,2,3,4,0,1,2,6,9,10,11,4,0],"categories_nodes":[1,2,8,10,13],"categories_segments":[0,2,5,12,13],"categories_sizes":[2,3,7,1,1],"default_left":[1,1,1,0,0,0,0,0,1,0,1,0,0,1,1,0,0,0,0,0,0,0,0,0,0,0,0,0,0],"id":3,"left_children":[1,3,5,7,9,11,13,15,17,19,21,23,-1,25,27,-1,-1,-1,-1,-1,-1,-1,-1,-1,-1,-1,-1,-1,-1],"loss_changes":[1.3471767E2,6.2044846E1,1.58797455E1,1.8710571E1,2.492158E1,1.0036043E1,1.7524841E1,1.7662453E1,1.0284124E1,1.7886112E1,1.4131168E1,4.2246614E0,0E0,5.915478E0,1.1112839E1,0E0,0E0,0E0,0E0,0E0,0E0,0E0,0E0,0E0,0E0,0E0,0E0,0E0,0E0],"parents":[2147483647,0,0,1,1,2,2,3,3,4,4,5,5,6,6,7,7,8,8,9,9,10,10,11,11,13,13,14,14],"right_children":[2,4,6,8,10,12,14,16,18,20,22,24,-1,26,28,-1,-1,-1,-1,-1,-1,-1,-1,-1,-1,-1,-1,-1,-1],"split_conditions":[2.3555555E1,1E-45,1E-45,2.2772672E0,1.9723866E1,2.8841532E1,1.7491999E0,7.58E2,1E-45,1.12E2,1E-45,6.9E1,-1.1512204E-2,1E-45,1.16E2,-2.2308414E-3,1.7308383E-3,1.5000335E-3,-1.8768968E-3,4.2393163E-4,7.7940053E-3,-1.0786282E-3,-3.3802395E-3,7.402201E-4,-2.9827838E-3,-0E0,-5.158561E-3,-8.257433E-3,-1.1234804E-3],"split_indices":[7,26,26,23,7,7,23,16,4,13,26,13,0,25,13,0,0,0,0,0,0,0,0,0,0,0,0,0,0],"split_type":[0,1,1,0,0,0,0,0,1,0,1,0,0,1,0,0,0,0,0,0,0,0,0,0,0,0,0,0,0],"sum_hessian":[5.006235E3,4.5202793E3,4.859554E2,2.987344E3,1.5329353E3,1.2601677E2,3.5993863E2,2.5833594E3,4.0398474E2,2.2665387E2,1.3062814E3,1.1568553E2,1.0331236E1,9.3505226E1,2.664334E2,1.1573671E2,2.4676226E3,1.3191891E2,2.7206583E2,1.8566368E2,4.0990192E1,9.1659753E2,3.8968387E2,5.788311E1,5.7802425E1,5.1936714E1,4.1568512E1,2.3875916E2,2.7674255E1],"tree_param":{"num_deleted":"0","num_feature":"32","num_nodes":"29","size_leaf_vector":"1"}},{"base_weights":[6.494108E-3,6.515507E-2,-4.0937236E-1,1.1464969E-1,-4.6221595E-2,-3.26782E-1,-7.4097615E-1,2.3263942E-1,1.2965975E-2,-2.4743348E-3,-4.382221E-1,-3.4972024E-1,5.007338E-3,-8.274122E-1,-2.8559414E-1,4.635154E-3,1.9346126E-3,7.910183E-3,2.5114612E-5,3.0016776E-3,-4.8983854E-4,-2.5023476E-3,-1.107026E-2,2.1675312E-4,-4.1481266E-3,-9.440782E-3,-4.4424655E-3,-5.345319E-3,-0E0],"categories":[1,2,11],"categories_nodes":[6,10],"categories_segments":[0,1],"categories_sizes":[1,2],"default_left":[1,0,0,0,1,1,1,0,0,0,1,0,0,0,0,0,0,0,0,0,0,0,0,0,0,0,0,0,0],"id":4,"left_children":[1,3,5,7,9,11,13,15,17,19,21,23,-1,25,27,-1,-1,-1,-1,-1,-1,-1,-1,-1,-1,-1,-1,-1,-1],"loss_changes":[1.2148439E2,2.4206411E1,1.5779747E1,3.6200294E1,2.2555624E1,9.246677E0,3.618164E0,1.2019859E1,1.2515454E1,1.6761642E1,1.5277815E1,1.2065647E1,0E0,3.0429535E0,1.2728492E0,0E0,0E0,0E0,0E0,0E0,0E0,0E0,0E0,0E0,0E0,0E0,0E0,0E0,0E0],"parents":[2147483647,0,0,1,1,2,2,3,3,4,4,5,5,6,6,7,7,8,8,9,9,10,10,11,11,13,13,14,14],"right_children":[2,4,6,8,10,12,14,16,18,20,22,24,-1,26,28,-1,-1,-1,-1,-1,-1,-1,-1,-1,-1,-1,-1,-1,-1],"split_conditions":[2.293975E1,4E0,2.7055151E1,2E0,1.8902039E1,2.414152E1,1E-45,1.9555555E1,1.71875E1,1.882711E1,1E-45,2.8903718E0,5.007338E-3,1.02E2,6.4E1,4.635154E-3,1.9346126E-3,7.910183E-3,2.5114612E-5,3.0016776E-3,-4.8983854E-4,-2.5023476E-3,-1.107026E-2,2.1675312E-4,-4.1481266E-3,-9.440782E-3,-4.4424655E-3,-5.345319E-3,-0E0],"split_indices":[7,18,7,3,5,5,14,5,7,7,4,21,0,13,13,0,0,0,0,0,0,0,0,0,0,0,0,0,0],"split_type":[0,0,0,0,0,0,1,0,0,0,1,0,0,0,0,0,0,0,0,0,0,0,0,0,0,0,0,0,0],"sum_hessian":[4.9939526E3,4.3787163E3,6.152363E2,3.03775E3,1.3409661E3,4.9498834E2,1.20248E2,1.4015731E3,1.636177E3,1.2086427E3,1.3232346E2,4.828191E2,1.2169248E1,9.921238E1,2.1035624E1,1.9961484E2,1.2019583E3,2.0415333E1,1.6157616E3,1.581286E2,1.050514E3,1.0446843E2,2.7855028E1,6.9711685E1,4.1310742E2,7.404327E1,2.5169113E1,1.045258E1,1.0583042E1],"tree_param":{"num_deleted":"0","num_feature":"32","num_nodes":"29","size_leaf_vector":"1"}},{"base_weights":[1.8162632E-3,1.9467744E-1,-1.7087938E-1,2.993065E-1,1.2728819E-1,-1.6792787E-2,-2.9232115E-1,3.5831314E-1,1.8304232E-1,2.1491309E-1,9.516732E-6,-1.6244584E-1,1.13957055E-1,-4.1649154E-1,-1.6893396E-1,3.8567367E-3,-2.7683605E-3,1.2299557E-3,4.24566E-3,3.050057E-3,3.902831E-4,1.0475628E-3,-2.9541766E-3,-6.738986E-4,-5.2543906E-3,2.5707616E-3,-1.3700138E-3,-2.5622468E-3,-7.1176663E-3,2.150563E-3,-2.2498362E-3],"categories":[0,1,1,2,5,6,9,10,11,1,1],"categories_nodes":[0,1,5,6],"categories_segments":[0,2,9,10],"categories_sizes":[2,7,1,1],"default_left":[1,1,0,0,0,0,0,1,1,0,1,1,0,1,0,0,0,0,0,0,0,0,0,0,0,0,0,0,0,0,0],"id":5,"left_children":[1,3,5,7,9,11,13,15,17,19,21,23,25,27,29,-1,-1,-1,-1,-1,-1,-1,-1,-1,-1,-1,-1,-1,-1,-1,-1],"loss_changes":[1.6518579E2,1.6110153E1,4.859574E1,5.7215424E0,1.5760395E1,2.2055243E1,2.1750961E1,1.0535271E1,3.9926853E0,1.3025101E1,1.8027412E1,1.839294E1,2.1861662E1,3.322635E1,1.5836565E1,0E0,0E0,0E0,0E0,0E0,0E0,0E0,0E0,0E0,0E0,0E0,0E0,0E0,0E0,0E0,0E0],"parents":[2147483647,0,0,1,1,2,2,3,3,4,4,5,5,6,6,7,7,8,8,9,9,10,10,11,11,12,12,13,13,14,14],"right_children":[2,4,6,8,10,12,14,16,18,20,22,24,26,28,30,-1,-1,-1,-1,-1,-1,-1,-1,-1,-1,-1,-1,-1,-1,-1,-1],"split_conditions":[1E-45,1E-45,2.3E1,2.4E1,2.3E1,1E-45,1E-45,2.2222221E1,2E0,2E0,1.9650562E1,2.088889E1,2E0,2.0444445E1,1.8467636E1,3.8567367E-3,-2.7683605E-3,1.2299557E-3,4.24566E-3,3.050057E-3,3.902831E-4,1.0475628E-3,-2.9541766E-3,-6.738986E-4,-5.2543906E-3,2.5707616E-3,-1.3700138E-3,-2.5622468E-3,-7.1176663E-3,2.150563E-3,-2.2498362E-3],"split_indices":[24,4,0,0,0,27,27,6,30,3,6,6,3,6,6,0,0,0,0,0,0,0,0,0,0,0,0,0,0,0,0],"split_type":[1,1,0,0,0,1,1,0,0,0,0,0,0,0,0,0,0,0,0,0,0,0,0,0,0,0,0,0,0,0,0],"sum_hessian":[4.958864E3,2.3453918E3,2.6134722E3,9.1299506E2,1.4323967E3,1.1555475E3,1.4579248E3,5.999071E2,3.1308795E2,8.4369324E2,5.887035E2,5.5023785E2,6.0530963E2,7.2260486E2,7.353199E2,5.7664514E2,2.3261969E1,2.5407597E2,5.9011974E1,5.5415045E2,2.8954276E2,4.371122E2,1.5159128E2,4.382431E2,1.1199471E2,3.880137E2,2.172959E2,4.7058835E2,2.5201651E2,9.138453E1,6.4393536E2],"tree_param":{"num_deleted":"0","num_feature":"32","num_nodes":"31","size_leaf_vector":"1"}},{"base_weights":[5.3309253E-4,1.2953587E-1,-1.0238889E-1,1.5385483E-1,-4.090795E-1,-1.9633197E-3,-3.7298015E-1,3.1094173E-1,-6.428756E-3,5.6445026E-3,-5.388617E-1,8.214966E-2,-1.5079018E-1,-1.113842E-1,-4.744875E-1,-3.70762E-3,3.2770943E-3,1.1916328E-3,-5.429393E-4,-3.3421612E-3,-9.121532E-3,1.9452226E-3,-3.089511E-4,-6.988922E-4,-4.2925286E-3,2.8221292E-4,-3.084817E-3,-2.5992866E-3,-5.916655E-3],"categories":[3,4,2,3,4],"categories_nodes":[5,6],"categories_segments":[0,2],"categories_sizes":[2,3],"default_left":[0,1,1,0,0,1,1,0,0,0,0,0,0,0,0,0,0,0,0,0,0,0,0,0,0,0,0,0,0],"id":6,"left_children":[1,3,5,7,9,11,13,15,17,-1,19,21,23,25,27,-1,-1,-1,-1,-1,-1,-1,-1,-1,-1,-1,-1,-1,-1],"loss_changes":[6.660868E1,2.8951416E1,7.530569E1,5.4064777E1,1.1923619E1,2.5529402E1,1.935936E1,1.2320244E1,6.2694387E0,0E0,5.193531E0,1.6616434E1,1.6142275E1,6.134424E0,1.268306E1,0E0,0E0,0E0,0E0,0E0,0E0,0E0,0E0,0E0,0E0,0E0,0E0,0E0,0E0],"parents":[2147483647,0,0,1,1,2,2,3,3,4,4,5,5,6,6,7,7,8,8,10,10,11,11,12,12,13,13,14,14],"right_children":[2,4,6,8,10,12,14,16,18,-1,20,22,24,26,28,-1,-1,-1,-1,-1,-1,-1,-1,-1,-1,-1,-1,-1,-1],"split_conditions":[3E0,2.2806017E1,2.0342798E1,2.3E1,2E1,1E-45,1E-45,8.07E2,2E0,5.6445026E-3,2.6E1,2E0,2.6E1,7.5E1,4E0,-3.70762E-3,3.2770943E-3,1.1916328E-3,-5.429393E-4,-3.3421612E-3,-9.121532E-3,1.9452226E-3,-3.089511E-4,-6.988922E-4,-4.2925286E-3,2.8221292E-4,-3.084817E-3,-2.5992866E-3,-5.916655E-3],"split_indices":[18,6,6,0,0,26,26,16,3,0,0,3,0,13,18,0,0,0,0,0,0,0,0,0,0,0,0,0,0],"split_type":[0,0,0,0,0,1,1,0,0,0,0,0,0,0,0,0,0,0,0,0,0,0,0,0,0,0,0,0,0],"sum_hessian":[5.014699E3,2.2296997E3,2.7849998E3,2.135159E3,9.454059E1,2.0338682E3,7.511316E2,1.0814788E3,1.0536803E3,1.0210474E1,8.433012E1,1.2951622E3,7.3870593E2,2.1274257E2,5.3838904E2,2.4525528E1,1.0569532E3,2.8499176E2,7.686885E2,5.621164E1,2.8118475E1,6.539447E2,6.4121747E2,5.751987E2,1.6350717E2,1.21569214E2,9.1173355E1,1.9319865E2,3.451904E2],"tree_param":{"num_deleted":"0","num_feature":"32","num_nodes":"29","size_leaf_vector":"1"}},{"base_weights":[-8.791843E-3,4.3245893E-2,-4.7256425E-1,7.9236E-2,-1.9461055E-1,-3.9981896E-1,-8.299031E-1,1.7149445E-1,5.155895E-3,-6.987151E-2,-3.2775068E-1,-1.770253E-1,-6.840241E-1,-4.8105574E-1,-1.1999727E0,8.629176E-4,2.5525205E-3,3.7408315E-4,-1.5540896E-3,1.4170298E-3,-1.9040796E-3,-1.9460657E-3,-5.2165794E-3,-4.215606E-3,-1.6727853E-4,-5.4358006E-3,-1.1017982E-2,-7.4673685E-6,-6.8182894E-3,-7.7423877E-3,-1.4003491E-2],"categories":[2,3,4,3,4,3,4,0,0,3,4,3,4],"categories_nodes":[3,4,5,7,11,13,14],"categories_segments":[0,3,5,7,8,9,11],"categories_sizes":[3,2,2,1,1,2,2],"default_left":[1,0,0,1,1,1,0,1,1,0,0,1,0,1,1,0,0,0,0,0,0,0,0,0,0,0,0,0,0,0,0],"id":7,"left_children":[1,3,5,7,9,11,13,15,17,19,21,23,25,27,29,-1,-1,-1,-1,-1,-1,-1,-1,-1,-1,-1,-1,-1,-1,-1,-1],"loss_changes":[1.2021443E2,3.807077E1,1.1833824E1,2.6328558E1,9.277834E0,2.5731445E1,8.988152E0,1.1940979E1,1.105233E1,7.819065E0,6.4582005E0,8.868114E0,9.061623E0,3.5578337E0,1.1181908E0,0E0,0E0,0E0,0E0,0E0,0E0,0E0,0E0,0E0,0E0,0E0,0E0,0E0,0E0,0E0,0E0],"parents":[2147483647,0,0,1,1,2,2,3,3,4,4,5,5,6,6,7,7,8,8,9,9,10,10,11,11,12,12,13,13,14,14],"right_children":[2,4,6,8,10,12,14,16,18,20,22,24,26,28,30,-1,-1,-1,-1,-1,-1,-1,-1,-1,-1,-1,-1,-1,-1,-1,-1],"split_conditions":[2.3337685E1,2.3272777E0,2.442347E0,1E-45,1E-45,1E-45,4.189655E0,1E-45,2.0545694E1,3.713572E0,2.5257287E0,1E-45,2.7339912E1,1E-45,1E-45,8.629176E-4,2.5525205E-3,3.7408315E-4,-1.5540896E-3,1.4170298E-3,-1.9040796E-3,-1.9460657E-3,-5.2165794E-3,-4.215606E-3,-1.6727853E-4,-5.4358006E-3,-1.1017982E-2,-7.4673685E-6,-6.8182894E-3,-7.7423877E-3,-1.4003491E-2],"split_indices":[8,23,23,26,26,26,21,2,8,20,23,2,8,26,26,0,0,0,0,0,0,0,0,0,0,0,0,0,0,0,0],"split_type":[0,0,0,1,1,1,0,1,0,0,0,1,0,1,1,0,0,0,0,0,0,0,0,0,0,0,0,0,0,0,0],"sum_hessian":[4.963385E3,4.4607207E3,5.0266382E2,3.8781309E3,5.825899E2,4.19985E2,8.2678825E1,1.7211365E3,2.1569944E3,3.046703E2,2.7791962E2,2.3740984E2,1.8257515E2,4.3962563E1,3.8716267E1,8.591366E2,8.6199994E2,1.801388E3,3.5560638E2,1.07565445E2,1.9710484E2,1.6784679E2,1.1007282E2,9.1528114E1,1.4588173E2,1.3844907E2,4.4126083E1,1.443074E1,2.953182E1,1.4003235E1,2.471303E1],"tree_param":{"num_deleted":"0","num_feature":"32","num_nodes":"31","size_leaf_vector":"1"}},{"base_weights":[-8.145503E-3,2.2225792E-2,-4.8073936E-1,1.19176544E-1,-1.5568145E-1,-1.7863333E-1,-8.2145464E-1,1.3724847E-1,-5.062773E-1,-1.0111842E-1,-4.8032916E-1,3.2958102E-1,-3.1706604E-1,-1.1572091E-2,-6.343167E-1,5.9857437E-5,2.511706E-3,-7.988097E-3,-2.2712122E-3,-1.1447918E-4,-2.1032228E-3,-5.3589004E-3,1.26604E-3,7.944767E-3,4.890522E-4,-5.442364E-3,6.522004E-4,-7.1941153E-3,-1.8607916E-5],"categories":[3,4,0,2,3,4,0,0,0,1,2,0],"categories_nodes":[1,5,7,11,12,14],"categories_segments":[0,2,6,7,8,11],"categories_sizes":[2,4,1,1,3,1],"default_left":[1,1,1,1,1,1,0,1,1,0,1,1,1,0,1,0,0,0,0,0,0,0,0,0,0,0,0,0,0],"id":8,"left_children":[1,3,5,7,9,11,13,15,17,19,21,23,25,-1,27,-1,-1,-1,-1,-1,-1,-1,-1,-1,-1,-1,-1,-1,-1],"loss_changes":[7.268764E1,8.148544E1,3.048098E1,3.4251972E1,2.888498E1,1.1504147E1,7.1349564E0,4.4281532E1,5.8696346E0,1.37499485E1,8.392403E0,3.5273695E0,1.1785869E1,0E0,4.2963943E0,0E0,0E0,0E0,0E0,0E0,0E0,0E0,0E0,0E0,0E0,0E0,0E0,0E0,0E0],"parents":[2147483647,0,0,1,1,2,2,3,3,4,4,5,5,6,6,7,7,8,8,9,9,10,10,11,11,12,12,14,14],"right_children":[2,4,6,8,10,12,14,16,18,20,22,24,26,-1,28,-1,-1,-1,-1,-1,-1,-1,-1,-1,-1,-1,-1,-1,-1],"split_conditions":[2.0174553E1,1E-45,2.3601276E1,2.4776794E1,2.2600264E1,1E-45,2.235434E1,1E-45,6.7E1,2E0,1.23E2,1E-45,1E-45,-1.1572091E-2,1E-45,5.9857437E-5,2.511706E-3,-7.988097E-3,-2.2712122E-3,-1.1447918E-4,-2.1032228E-3,-5.3589004E-3,1.26604E-3,7.944767E-3,4.890522E-4,-5.442364E-3,6.522004E-4,-7.1941153E-3,-1.8607916E-5],"split_indices":[5,26,7,7,7,26,5,2,13,3,13,2,1,0,27,0,0,0,0,0,0,0,0,0,0,0,0,0,0],"split_type":[0,1,0,0,0,1,0,1,0,0,0,1,1,0,1,0,0,0,0,0,0,0,0,0,0,0,0,0,0],"sum_hessian":[5.0322188E3,4.7263716E3,3.0584723E2,3.0628772E3,1.6634943E3,1.6367226E2,1.4217496E2,2.9784248E3,8.44523E1,1.4267894E3,2.367048E2,3.348918E1,1.3018307E2,4.8951996E1,9.322297E1,1.3879719E3,1.590453E3,3.947985E1,4.497245E1,7.884984E2,6.38291E2,2.1836378E2,1.8341024E1,1.1259101E1,2.2230082E1,8.329645E1,4.688663E1,8.077274E1,1.2450223E1],"tree_param":{"num_deleted":"0","num_feature":"32","num_nodes":"29","size_leaf_vector":"1"}},{"base_weights":[2.7825115E-3,4.691338E-2,-3.4828752E-1,1.6512567E-1,-6.763314E-2,4.971963E-3,-3.6809194E-1,1.9068675E-1,-1.8435438E-1,-2.4993991E-2,-4.805526E-1,-2.4910386E-1,-6.795628E-1,2.103398E-3,-1.9879191E-4,4.790086E-4,-2.666017E-3,2.7124553E-3,-7.8886375E-4,-9.866076E-3,-3.95E-3,-2.2835147E-3,-9.047605E-3,-6.0637835E-3,-1.4355485E-2],"categories":[4,0],"categories_nodes":[0,8],"categories_segments":[0,1],"categories_sizes":[1,1],"default_left":[1,0,0,1,1,0,0,0,1,0,0,1,1,0,0,0,0,0,0,0,0,0,0,0,0],"id":9,"left_children":[1,3,5,7,9,-1,11,13,15,17,19,21,23,-1,-1,-1,-1,-1,-1,-1,-1,-1,-1,-1,-1],"loss_changes":[7.742342E1,6.047719E1,9.210625E0,1.964812E1,3.929155E1,0E0,1.9307846E1,8.680328E0,3.0305824E0,3.2552296E1,7.6789894E0,4.2729187E0,6.1718445E0,0E0,0E0,0E0,0E0,0E0,0E0,0E0,0E0,0E0,0E0,0E0,0E0],"parents":[2147483647,0,0,1,1,2,2,3,3,4,4,6,6,7,7,8,8,9,9,10,10,11,11,12,12],"right_children":[2,4,6,8,10,-1,12,14,16,18,20,22,24,-1,-1,-1,-1,-1,-1,-1,-1,-1,-1,-1,-1],"split_conditions":[1E-45,2E0,1E0,1.9909973E1,1.8902039E1,4.971963E-3,2.7E1,2.6E1,1E-45,2.1E1,1.92974E1,2.523634E1,2.1777779E1,2.103398E-3,-1.9879191E-4,4.790086E-4,-2.666017E-3,2.7124553E-3,-7.8886375E-4,-9.866076E-3,-3.95E-3,-2.2835147E-3,-9.047605E-3,-6.0637835E-3,-1.4355485E-2],"split_indices":[26,3,3,5,5,0,0,0,28,0,5,5,5,0,0,0,0,0,0,0,0,0,0,0,0],"split_type":[1,0,0,0,0,0,0,0,1,0,0,0,0,0,0,0,0,0,0,0,0,0,0,0,0],"sum_hessian":[5.0167397E3,4.459074E3,5.576659E2,2.1987178E3,2.2603564E3,1.1602458E1,5.460634E2,2.0515337E3,1.4718393E2,2.0509973E3,2.0935896E2,3.9745593E2,1.4860748E2,1.8807446E3,1.7078918E2,3.5312366E1,1.1187157E2,3.128277E2,1.7381697E3,2.8569946E1,1.8078902E2,3.8675336E2,1.0702578E1,1.367135E2,1.1893985E1],"tree_param":{"num_deleted":"0","num_feature":"32","num_nodes":"25","size_leaf_vector":"1"}},{"base_weights":[-6.912269E-3,1.14608616E-1,-1.9833526E-1,1.5213539E-1,-4.0492928E-1,-7.427162E-2,-5.491768E-1,3.3413085E-1,1.05677426E-1,-5.440898E-1,-0E0,4.102635E-1,-1.3272917E-1,-4.8931345E-1,-8.8870496E-1,8.3046295E-3,2.8525186E-3,2.398727E-3,-1.2554292E-5,-4.5982343E-3,-1.2556243E-2,-3.3911245E-3,3.1174861E-3,7.974265E-3,1.0592636E-3,-5.1991054E-4,-2.7493052E-3,-0E0,-5.4619387E-3,-5.6675076E-3,-1.1810572E-2],"categories":[2,3,4,0,1,2,3,4,5,6,7,2,3,4,3,4,1,2,3,4],"categories_nodes":[8,10,11,12,13],"categories_segments":[0,3,11,14,16],"categories_sizes":[3,8,3,2,4],"default_left":[0,1,1,0,0,0,0,0,1,0,1,1,1,1,0,0,0,0,0,0,0,0,0,0,0,0,0,0,0,0,0],"id":10,"left_children":[1,3,5,7,9,11,13,15,17,19,21,23,25,27,29,-1,-1,-1,-1,-1,-1,-1,-1,-1,-1,-1,-1,-1,-1,-1,-1],"loss_changes":[1.1586701E2,5.9044567E1,8.3643265E1,2.3558151E1,1.1771065E1,4.0293953E1,8.854431E0,1.2778473E1,3.2748398E1,7.407528E0,5.3603935E0,1.7048666E1,1.4368652E1,1.1710579E1,5.114094E0,0E0,0E0,0E0,0E0,0E0,0E0,0E0,0E0,0E0,0E0,0E0,0E0,0E0,0E0,0E0,0E0],"parents":[2147483647,0,0,1,1,2,2,3,3,4,4,5,5,6,6,7,7,8,8,9,9,10,10,11,11,12,12,13,13,14,14],"right_children":[2,4,6,8,10,12,14,16,18,20,22,24,26,28,30,-1,-1,-1,-1,-1,-1,-1,-1,-1,-1,-1,-1,-1,-1,-1,-1],"split_conditions":[2.4E1,2.2432302E1,2.0342798E1,1.8426535E1,1.14E2,1.754309E1,2.5969528E1,1.5615705E1,1E-45,2.7531229E1,1E-45,1E-45,1E-45,1E-45,4.394449E0,8.3046295E-3,2.8525186E-3,2.398727E-3,-1.2554292E-5,-4.5982343E-3,-1.2556243E-2,-3.3911245E-3,3.1174861E-3,7.974265E-3,1.0592636E-3,-5.1991054E-4,-2.7493052E-3,-0E0,-5.4619387E-3,-5.6675076E-3,-1.1810572E-2],"split_indices":[0,6,6,6,13,6,6,6,26,6,4,26,26,26,20,0,0,0,0,0,0,0,0,0,0,0,0,0,0,0,0],"split_type":[0,0,0,0,0,0,0,0,1,0,1,1,1,1,0,0,0,0,0,0,0,0,0,0,0,0,0,0,0,0,0],"sum_hessian":[4.977361E3,3.0413826E3,1.9359781E3,2.838301E3,2.0308157E2,1.4323402E3,5.036379E2,5.7280286E2,2.265498E3,1.5224136E2,5.0840202E1,1.5235489E2,1.2799854E3,4.3067404E2,7.296388E1,4.9504143E1,5.232987E2,1.00881995E3,1.2566782E3,1.3739204E2,1.4849323E1,2.342805E1,2.7412155E1,6.559988E1,8.675502E1,8.209295E2,4.5905585E2,4.5777668E1,3.8489636E2,3.6365803E1,3.6598083E1],"tree_param":{"num_deleted":"0","num_feature":"32","num_nodes":"31","size_leaf_vector":"1"}},{"base_weights":[6.7219255E-3,1.6827556E-1,-2.0068936E-1,2.2351763E-1,-5.742379E-2,-1.1246082E-1,-5.763933E-1,6.576202E-1,2.0468217E-1,-2.534266E-2,-9.048086E-3,6.648366E-2,-1.9537462E-1,-4.8819774E-1,-9.604971E-1,1.0279413E-2,4.0581906E-3,5.9599257E-3,1.8934434E-3,5.0152553E-4,-1.112184E-3,-3.8817382E-4,1.8752469E-3,-3.537458E-3,-5.5512454E-4,-5.762139E-3,2.1624702E-3,-1.0750905E-2,-1.9444989E-3],"categories":[0,0,1,1,0],"categories_nodes":[0,8,11,12,14],"categories_segments":[0,1,2,3,4],"categories_sizes":[1,1,1,1,1],"default_left":[1,1,1,0,1,0,0,1,0,0,0,0,0,1,1,0,0,0,0,0,0,0,0,0,0,0,0,0,0],"id":11,"left_children":[1,3,5,7,9,11,13,15,17,19,-1,21,23,25,27,-1,-1,-1,-1,-1,-1,-1,-1,-1,-1,-1,-1,-1,-1],"loss_changes":[1.6712152E2,3.5163506E1,7.162323E1,1.7603622E1,1.3977471E1,2.637294E1,1.25278015E1,7.1138306E0,1.2218788E1,3.4941578E0,0E0,7.238739E0,2.6449097E1,2.1304611E1,5.3070145E0,0E0,0E0,0E0,0E0,0E0,0E0,0E0,0E0,0E0,0E0,0E0,0E0,0E0,0E0],"parents":[2147483647,0,0,1,1,2,2,3,3,4,4,5,5,6,6,7,7,8,8,9,9,11,11,12,12,13,13,14,14],"right_children":[2,4,6,8,10,12,14,16,18,20,-1,22,24,26,28,-1,-1,-1,-1,-1,-1,-1,-1,-1,-1,-1,-1,-1,-1],"split_conditions":[1E-45,2.088889E1,2.2718975E1,1.7777779E1,2.4444445E1,1.9562956E1,2.7885187E1,4.3E1,1E-45,4.394449E0,-9.048086E-3,1E-45,1E-45,1.16E2,1E-45,1.0279413E-2,4.0581906E-3,5.9599257E-3,1.8934434E-3,5.0152553E-4,-1.112184E-3,-3.8817382E-4,1.8752469E-3,-3.537458E-3,-5.5512454E-4,-5.762139E-3,2.1624702E-3,-1.0750905E-2,-1.9444989E-3],"split_indices":[24,8,7,7,6,6,7,13,9,20,0,27,27,13,27,0,0,0,0,0,0,0,0,0,0,0,0,0,0],"split_type":[1,0,0,0,0,0,0,0,1,0,0,1,1,0,1,0,0,0,0,0,0,0,0,0,0,0,0,0,0],"sum_hessian":[4.988451E3,2.8069373E3,2.1815137E3,2.2585632E3,5.48374E2,1.7688094E3,4.1270422E2,9.1700584E1,2.1668628E3,5.295174E2,1.8856592E1,5.562508E2,1.2125587E3,3.3777304E2,7.4931175E1,3.549551E1,5.620507E1,7.925559E1,2.0876072E3,2.7559518E2,2.5392223E2,2.9305197E2,2.631988E2,5.6529205E2,6.472666E2,3.0152118E2,3.6251873E1,6.40417E1,1.0889474E1],"tree_param":{"num_deleted":"0","num_feature":"32","num_nodes":"29","size_leaf_vector":"1"}},{"base_weights":[-1.3718634E-2,1.2722017E-1,-1.5818338E-1,2.393812E-1,-5.9104403E-3,2.4991784E-2,-3.35429E-1,3.015869E-1,-4.1336432E-2,9.235751E-2,-2.3034765E-1,5.4243304E-2,-4.838431E-1,-2.4424523E-1,-8.1692505E-1,3.1968488E-3,-2.8658248E-3,2.2736667E-3,-1.6112959E-3,2.4195228E-4,4.2149904E-3,-1.550666E-3,-5.067706E-3,9.063105E-4,-1.0466664E-3,1.486424E-3,-6.659715E-3,-2.6590812E-3,-0E0,-6.345993E-3,-9.324214E-3],"categories":[0,1,0,1,2,0],"categories_nodes":[1,2,11,14],"categories_segments":[0,2,3,5],"categories_sizes":[2,1,2,1],"default_left":[0,1,1,1,1,1,1,1,1,1,1,1,1,1,0,0,0,0,0,0,0,0,0,0,0,0,0,0,0,0,0],"id":12,"left_children":[1,3,5,7,9,11,13,15,17,19,21,23,25,27,29,-1,-1,-1,-1,-1,-1,-1,-1,-1,-1,-1,-1,-1,-1,-1,-1],"loss_changes":[1.01228516E2,3.77476E1,8.011191E1,2.4142166E1,2.5384672E1,1.752067E1,5.3903458E1,1.1982208E1,7.826091E0,1.7346E1,6.6556244E0,6.591184E0,7.856388E0,5.7089806E0,2.587906E0,0E0,0E0,0E0,0E0,0E0,0E0,0E0,0E0,0E0,0E0,0E0,0E0,0E0,0E0,0E0,0E0],"parents":[2147483647,0,0,1,1,2,2,3,3,4,4,5,5,6,6,7,7,8,8,9,9,10,10,11,11,12,12,13,13,14,14],"right_children":[2,4,6,8,10,12,14,16,18,20,22,24,26,28,30,-1,-1,-1,-1,-1,-1,-1,-1,-1,-1,-1,-1,-1,-1,-1,-1],"split_conditions":[2.3E1,1E-45,1E-45,2.1230572E1,2.02395E1,2.38054E1,2.3634033E1,1.29E2,3.8E1,9.3E1,2E0,1E-45,3.7E1,1.17E2,1E-45,3.1968488E-3,-2.8658248E-3,2.2736667E-3,-1.6112959E-3,2.4195228E-4,4.2149904E-3,-1.550666E-3,-5.067706E-3,9.063105E-4,-1.0466664E-3,1.486424E-3,-6.659715E-3,-2.6590812E-3,-0E0,-6.345993E-3,-9.324214E-3],"split_indices":[0,24,24,8,8,8,8,13,13,13,30,24,13,13,19,0,0,0,0,0,0,0,0,0,0,0,0,0,0,0,0],"split_type":[0,1,1,0,0,0,0,0,0,0,0,1,0,0,1,0,0,0,0,0,0,0,0,0,0,0,0,0,0,0,0],"sum_hessian":[4.9702227E3,2.5123098E3,2.4579128E3,1.3676139E3,1.1446958E3,1.2059678E3,1.2519451E3,1.1224465E3,2.4516733E2,7.9302625E2,3.516696E2,1.1422756E3,6.369208E1,1.0543655E3,1.9757957E2,1.0905938E3,3.1852865E1,7.302076E1,1.7214656E2,6.5949884E2,1.335274E2,2.7925146E2,7.241811E1,9.345715E2,2.0770424E2,1.301288E1,5.06792E1,9.7030975E2,8.405578E1,8.000492E1,1.1757466E2],"tree_param":{"num_deleted":"0","num_feature":"32","num_nodes":"31","size_leaf_vector":"1"}},{"base_weights":[1.8641215E-2,6.44256E-2,-3.671607E-1,1.998678E-1,-6.863391E-2,2.5774783E-2,-4.2429608E-1,5.257953E-1,1.8691455E-1,-1.6909395E-1,3.8525745E-2,-8.045596E-3,2.075019E-1,-4.46716E-1,4.7295047E-3,6.6290544E-3,5.632758E-4,9.6739223E-4,2.6050198E-3,-1.3195145E-3,-6.2178974E-3,5.130373E-3,2.3776622E-4,-1.9450904E-3,4.755002E-3,-6.5599596E-3,-3.0897453E-3],"categories":[0,1,0,0,0,0,0],"categories_nodes":[1,3,4,8,12,13],"categories_segments":[0,2,3,4,5,6],"categories_sizes":[2,1,1,1,1,1],"default_left":[1,1,0,0,0,0,1,0,0,1,0,0,1,1,0,0,0,0,0,0,0,0,0,0,0,0,0],"id":13,"left_children":[1,3,5,7,9,11,13,15,17,19,21,-1,23,25,-1,-1,-1,-1,-1,-1,-1,-1,-1,-1,-1,-1,-1],"loss_changes":[8.739152E1,8.0153915E1,1.2170631E1,8.591919E0,2.4203218E1,9.115099E0,9.229553E0,4.5132656E0,1.372953E1,1.8732555E1,7.001853E0,0E0,6.077551E0,1.2001732E1,0E0,0E0,0E0,0E0,0E0,0E0,0E0,0E0,0E0,0E0,0E0,0E0,0E0],"parents":[2147483647,0,0,1,1,2,2,3,3,4,4,5,5,6,6,7,7,8,8,9,9,10,10,12,12,13,13],"right_children":[2,4,6,8,10,12,14,16,18,20,22,-1,24,26,-1,-1,-1,-1,-1,-1,-1,-1,-1,-1,-1,-1,-1],"split_conditions":[2.3283419E1,1E-45,1.9650562E1,1E-45,1E-45,2.5E1,6.61E2,4E0,1E-45,1.9723866E1,1.7917595E0,-8.045596E-3,1E-45,1E-45,4.7295047E-3,6.6290544E-3,5.632758E-4,9.6739223E-4,2.6050198E-3,-1.3195145E-3,-6.2178974E-3,5.130373E-3,2.3776622E-4,-1.9450904E-3,4.755002E-3,-6.5599596E-3,-3.0897453E-3],"split_indices":[8,24,5,9,27,13,16,18,2,5,21,0,2,2,0,0,0,0,0,0,0,0,0,0,0,0,0],"split_type":[0,1,0,1,1,0,0,0,1,0,0,0,1,1,0,0,0,0,0,0,0,0,0,0,0,0,0],"sum_hessian":[4.9646343E3,4.440291E3,5.243436E2,2.2041655E3,2.2361252E3,6.434292E1,4.6000067E2,8.128513E1,2.1228806E3,1.1589545E3,1.0771707E3,1.0559264E1,5.3783653E1,4.4987888E2,1.0121802E1,6.1259754E1,2.0025381E1,9.600413E2,1.1628392E3,1.073129E3,8.582549E1,3.0418022E1,1.0467527E3,2.002161E1,3.3762043E1,1.7567155E2,2.7420734E2],"tree_param":{"num_deleted":"0","num_feature":"32","num_nodes":"27","size_leaf_vector":"1"}},{"base_weights":[1.1800106E-2,1.510655E-1,-1.295376E-1,2.7097797E-1,5.829501E-2,-7.779624E-2,-4.511085E-1,3.690585E-1,1.1147239E-1,1.862234E-1,-4.1956283E-2,5.287136E-2,-2.269546E-1,-5.228691E-1,-0E0,9.638833E-4,4.2842147E-3,3.1228806E-3,-1.0362623E-3,3.2746224E-3,5.011412E-4,1.9433736E-4,-3.9054407E-3,1.3767321E-3,-3.3699486E-3,-1.2101803E-3,-5.2056196E-3,-3.8785394E-3,-7.495627E-3,-3.0524319E-3,5.2200668E-3],"categories":[2,3,4,0,1,2,0,2,1,2,4,6,7,8,11],"categories_nodes":[1,4,5,6,9],"categories_segments":[0,3,6,7,8],"categories_sizes":[3,3,1,1,7],"default_left":[0,1,0,0,1,1,1,0,1,1,1,1,1,1,1,0,0,0,0,0,0,0,0,0,0,0,0,0,0,0,0],"id":14,"left_children":[1,3,5,7,9,11,13,15,17,19,21,23,25,27,29,-1,-1,-1,-1,-1,-1,-1,-1,-1,-1,-1,-1,-1,-1,-1,-1],"loss_changes":[9.866342E1,2.7790405E1,4.0794792E1,1.6694855E1,1.848274E1,4.192398E1,1.0800949E1,1.0416237E1,1.8434652E1,1.1783556E1,1.7433113E1,3.743346E1,3.0581264E1,7.850258E0,7.515409E0,0E0,0E0,0E0,0E0,0E0,0E0,0E0,0E0,0E0,0E0,0E0,0E0,0E0,0E0,0E0,0E0],"parents":[2147483647,0,0,1,1,2,2,3,3,4,4,5,5,6,6,7,7,8,8,9,9,10,10,11,11,12,12,13,13,14,14],"right_children":[2,4,6,8,10,12,14,16,18,20,22,24,26,28,30,-1,-1,-1,-1,-1,-1,-1,-1,-1,-1,-1,-1,-1,-1,-1,-1],"split_conditions":[2.3E1,1E-45,2.3749058E0,2E0,1E-45,1E-45,1E-45,4.3E1,1.5203814E1,1E-45,2.1359306E1,2.0269358E1,2.0775623E1,2.0444445E1,7.8E1,9.638833E-4,4.2842147E-3,3.1228806E-3,-1.0362623E-3,3.2746224E-3,5.011412E-4,1.9433736E-4,-3.9054407E-3,1.3767321E-3,-3.3699486E-3,-1.2101803E-3,-5.2056196E-3,-3.8785394E-3,-7.495627E-3,-3.0524319E-3,5.2200668E-3],"split_indices":[0,26,23,3,24,24,19,13,6,4,6,6,6,6,13,0,0,0,0,0,0,0,0,0,0,0,0,0,0,0,0],"split_type":[0,1,0,0,1,1,1,0,0,1,0,0,0,0,0,0,0,0,0,0,0,0,0,0,0,0,0,0,0,0,0],"sum_hessian":[5.011393E3,2.5277651E3,2.4836282E3,1.0978793E3,1.4298859E3,2.142085E3,3.4154324E2,6.759517E2,4.219275E2,6.3260254E2,7.9728326E2,1.1382461E3,1.00383875E3,2.937317E2,4.7811558E1,1.2386734E2,5.520844E2,2.2061046E2,2.0131703E2,3.068388E2,3.2576373E2,6.754671E2,1.2181621E2,9.3700476E2,2.0124138E2,7.401905E2,2.6364825E2,1.8687201E2,1.0685968E2,3.0763666E1,1.7047894E1],"tree_param":{"num_deleted":"0","num_feature":"32","num_nodes":"31","size_leaf_vector":"1"}},{"base_weights":[-1.3311452E-4,4.3637827E-2,-3.775238E-1,1.2839557E-1,-9.733757E-2,-6.142208E-4,-5.292679E-1,2.2512662E-1,-3.2662936E-2,5.151497E-2,-2.0869587E-1,2.0668867E-1,-4.9032137E-1,-4.088689E-1,-8.924103E-1,9.7003183E-4,2.991831E-3,1.219693E-3,-1.8561681E-3,1.8912548E-3,-6.80763E-4,-1.2376169E-3,-3.7656846E-3,3.2603182E-3,-0E0,-8.206314E-3,-4.9489975E-4,-1.5757805E-3,-5.8738235E-3,-4.488831E-3,-9.728862E-3],"categories":[2,3,4,0,2,0,1,0,5,10,0,0,4,6,8,10,11,0,1,2,5,6,10,11,1,8,9],"categories_nodes":[2,3,4,5,7,8,9,10],"categories_segments":[0,3,5,7,10,11,17,24],"categories_sizes":[3,2,2,3,1,6,7,3],"default_left":[1,0,1,1,1,1,0,1,0,1,0,0,0,0,0,0,0,0,0,0,0,0,0,0,0,0,0,0,0,0,0],"id":15,"left_children":[1,3,5,7,9,11,13,15,17,19,21,23,25,27,29,-1,-1,-1,-1,-1,-1,-1,-1,-1,-1,-1,-1,-1,-1,-1,-1],"loss_changes":[8.320971E1,5.3720325E1,2.9427933E1,4.397973E1,2.8049713E1,1.5740818E1,1.4940132E1,1.6301582E1,2.4915903E1,1.1909085E1,1.3278652E1,2.7494469E0,5.9323826E0,1.1865067E1,1.8018875E0,0E0,0E0,0E0,0E0,0E0,0E0,0E0,0E0,0E0,0E0,0E0,0E0,0E0,0E0,0E0,0E0],"parents":[2147483647,0,0,1,1,2,2,3,3,4,4,5,5,6,6,7,7,8,8,9,9,10,10,11,11,12,12,13,13,14,14],"right_children":[2,4,6,8,10,12,14,16,18,20,22,24,26,28,30,-1,-1,-1,-1,-1,-1,-1,-1,-1,-1,-1,-1,-1,-1,-1,-1],"split_conditions":[2.3309053E1,2.4E1,1E-45,1E-45,1E-45,1E-45,2.718163E1,1E-45,1E-45,1E-45,1E-45,2.5224089E1,2.4773659E1,2.3E1,2.9957323E0,9.7003183E-4,2.991831E-3,1.219693E-3,-1.8561681E-3,1.8912548E-3,-6.80763E-4,-1.2376169E-3,-3.7656846E-3,3.2603182E-3,-0E0,-8.206314E-3,-4.9489975E-4,-1.5757805E-3,-5.8738235E-3,-4.488831E-3,-9.728862E-3],"split_indices":[8,0,26,24,24,4,8,2,4,4,4,8,8,0,21,0,0,0,0,0,0,0,0,0,0,0,0,0,0,0,0],"split_type":[0,0,1,1,1,1,0,1,1,1,1,0,0,0,0,0,0,0,0,0,0,0,0,0,0,0,0,0,0,0,0],"sum_hessian":[5.017057E3,4.4932725E3,5.237846E2,2.8105798E3,1.6826929E3,1.52241E2,3.7154364E2,1.7598352E3,1.0507445E3,7.1627466E2,9.664183E2,1.05531235E2,4.6709755E1,2.8111545E2,9.042818E1,6.4956445E2,1.1102708E3,5.1925543E2,5.314891E2,3.3693195E2,3.793427E2,6.457029E2,3.207154E2,6.827232E1,3.7258915E1,2.5400434E1,2.130932E1,1.1909198E2,1.6202347E2,1.5806362E1,7.462182E1],"tree_param":{"num_deleted":"0","num_feature":"32","num_nodes":"31","size_leaf_vector":"1"}},{"base_weights":[-1.3613092E-2,3.6048632E-2,-4.787179E-1,1.8920106E-1,-1.143655E-1,-1.8548407E-1,-5.951457E-1,2.0384401E-1,-3.6770797E-3,-7.362906E-2,-4.6402952E-1,2.0787325E-2,-4.3286183E-1,-4.921973E-1,-1.0822774E0,6.4291735E-4,2.415348E-3,-1.5127377E-4,-2.242985E-3,-1.4945795E-3,-5.4272134E-3,-7.0609995E-3,1.6172392E-3,-2.5789593E-3,-6.8193953E-3,-6.1800024E-3,-3.6354442E-3,-4.779709E-3,-1.2086162E-2],"categories":[0,1,0,1,0,0,1,0,1,2,2,3,2],"categories_nodes":[1,2,7,10,11,12,13,14],"categories_segments":[0,2,4,5,6,7,10,12],"categories_sizes":[2,2,1,1,1,3,2,1],"default_left":[1,1,1,1,1,0,0,1,0,1,1,1,1,1,0,0,0,0,0,0,0,0,0,0,0,0,0,0,0],"id":16,"left_children":[1,3,5,7,9,11,13,15,-1,17,19,21,23,25,27,-1,-1,-1,-1,-1,-1,-1,-1,-1,-1,-1,-1,-1,-1],"loss_changes":[1.1578332E2,1.0396558E2,1.5731781E1,1.8086426E1,3.18243E1,7.5520177E0,1.5660522E1,1.1172623E1,0E0,1.77198E1,5.1120567E0,7.048576E0,1.9271517E0,3.6372375E0,2.7567291E0,0E0,0E0,0E0,0E0,0E0,0E0,0E0,0E0,0E0,0E0,0E0,0E0,0E0,0E0],"parents":[2147483647,0,0,1,1,2,2,3,3,4,4,5,5,6,6,7,7,9,9,10,10,11,11,12,12,13,13,14,14],"right_children":[2,4,6,8,10,12,14,16,-1,18,20,22,24,26,28,-1,-1,-1,-1,-1,-1,-1,-1,-1,-1,-1,-1,-1,-1],"split_conditions":[2.3495237E1,1E-45,1E-45,2.3833004E1,2.2718975E1,3.4965076E0,2.8672626E1,1E-45,-3.6770797E-3,1.8314257E1,1E-45,1E-45,1E-45,1E-45,1E-45,6.4291735E-4,2.415348E-3,-1.5127377E-4,-2.242985E-3,-1.4945795E-3,-5.4272134E-3,-7.0609995E-3,1.6172392E-3,-2.5789593E-3,-6.8193953E-3,-6.1800024E-3,-3.6354442E-3,-4.779709E-3,-1.2086162E-2],"split_indices":[8,24,24,7,7,20,8,28,0,8,28,10,1,1,1,0,0,0,0,0,0,0,0,0,0,0,0,0,0],"split_type":[0,1,1,0,0,0,0,1,0,0,1,1,1,1,1,0,0,0,0,0,0,0,0,0,0,0,0,0,0],"sum_hessian":[4.993536E3,4.5098545E3,4.8368207E2,2.2378796E3,2.2719746E3,1.3991316E2,3.437689E2,2.1823018E3,5.5577877E1,2.037477E3,2.3449747E2,7.409618E1,6.581697E1,2.855045E2,5.82644E1,4.6971506E2,1.7125868E3,1.4724174E3,5.650597E2,4.9471443E1,1.8502603E2,1.0874571E1,6.3221615E1,4.103024E1,2.4786734E1,1.4040189E2,1.4510262E2,1.1451663E1,4.6812737E1],"tree_param":{"num_deleted":"0","num_feature":"32","num_nodes":"29","size_leaf_vector":"1"}},{"base_weights":[1.3524242E-2,1.6022852E-1,-1.1815191E-1,5.599695E-2,2.4494925E-1,-5.5387493E-2,-2.0380656E-1,7.442458E-2,-8.135308E-3,2.7160648E-1,-6.393331E-2,3.5372697E-2,-2.9149505E-1,-1.23425774E-1,-6.447424E-1,8.979763E-4,-2.4914504E-3,2.7942152E-3,-1.7440288E-3,-0E0,-6.221093E-3,-7.285266E-4,1.3588795E-3,-0E0,-3.2694726E-3,-1.3696317E-3,6.0566077E-3,-7.826136E-3,-5.1868823E-3],"categories":[0,1,0,0,4,3,4,3,0,0,0,2,3],"categories_nodes":[0,1,2,7,9,10,11,13,14],"categories_segments":[0,2,3,5,7,8,9,10,11],"categories_sizes":[2,1,2,2,1,1,1,1,2],"default_left":[1,0,1,1,1,1,1,1,0,1,0,1,0,1,1,0,0,0,0,0,0,0,0,0,0,0,0,0,0],"id":17,"left_children":[1,3,5,7,9,11,13,15,-1,17,19,21,23,25,27,-1,-1,-1,-1,-1,-1,-1,-1,-1,-1,-1,-1,-1,-1],"loss_changes":[9.6805786E1,2.065345E1,1.39129715E1,1.6394741E1,1.0942398E1,3.3002735E1,3.8503906E1,5.054952E0,0E0,4.299019E0,3.5128722E0,1.2037612E1,4.1306877E0,8.801432E0,1.6305084E0,0E0,0E0,0E0,0E0,0E0,0E0,0E0,0E0,0E0,0E0,0E0,0E0,0E0,0E0],"parents":[2147483647,0,0,1,1,2,2,3,3,4,4,5,5,6,6,7,7,9,9,10,10,11,11,12,12,13,13,14,14],"right_children":[2,4,6,8,10,12,14,16,-1,18,20,22,24,26,28,-1,-1,-1,-1,-1,-1,-1,-1,-1,-1,-1,-1,-1,-1],"split_conditions":[1E-45,1E-45,1E-45,2.5299376E1,2.3283419E1,2.0173252E1,2.4034407E1,1E-45,-8.135308E-3,1E-45,1E-45,1E-45,2E0,1E-45,1E-45,8.979763E-4,-2.4914504E-3,2.7942152E-3,-1.7440288E-3,-0E0,-6.221093E-3,-7.285266E-4,1.3588795E-3,-0E0,-3.2694726E-3,-1.3696317E-3,6.0566077E-3,-7.826136E-3,-5.1868823E-3],"split_indices":[24,2,25,8,8,8,8,25,0,1,10,2,30,10,1,0,0,0,0,0,0,0,0,0,0,0,0,0,0],"split_type":[1,1,1,0,0,0,0,1,0,1,1,1,0,1,1,0,0,0,0,0,0,0,0,0,0,0,0,0,0],"sum_hessian":[5.009114E3,2.3729417E3,2.6361719E3,1.069258E3,1.3036836E3,1.5281177E3,1.1080543E3,1.048203E3,2.1055048E1,1.2030928E3,1.0059082E2,1.1007576E3,4.2736014E2,9.391346E2,1.6891966E2,1.0036181E3,4.458494E1,1.1845822E3,1.8510609E1,9.046162E1,1.0129204E1,5.252605E2,5.754971E2,4.901526E1,3.7834488E2,9.2336957E2,1.5765073E1,7.6864365E1,9.20553E1],"tree_param":{"num_deleted":"0","num_feature":"32","num_nodes":"29","size_leaf_vector":"1"}},{"base_weights":[1.3634051E-2,9.748354E-2,-1.5211062E-1,2.1951324E-1,-3.2827973E-2,5.600815E-2,-3.2963014E-1,2.4701245E-1,-3.7592527E-1,3.5064884E-2,-4.2643243E-1,1.0761196E-1,-3.5648683E-1,8.2826585E-2,-4.1470483E-1,7.7710417E-3,2.2587664E-3,-2.163016E-3,-8.403911E-3,3.6605184E-3,-2.8250107E-4,-2.8632486E-3,-8.3847E-3,1.847276E-3,-2.0353657E-3,-4.552034E-3,1.6596741E-3,4.6258545E-3,-3.4625703E-4,-2.8829E-3,-5.8775037E-3],"categories":[0,1,0,0],"categories_nodes":[1,2,7],"categories_segments":[0,2,3],"categories_sizes":[2,1,1],"default_left":[0,1,1,1,1,1,0,0,1,0,0,0,0,0,1,0,0,0,0,0,0,0,0,0,0,0,0,0,0,0,0],"id":18,"left_children":[1,3,5,7,9,11,13,15,17,19,21,23,25,27,29,-1,-1,-1,-1,-1,-1,-1,-1,-1,-1,-1,-1,-1,-1,-1,-1],"loss_changes":[6.937994E1,5.3008556E1,6.213543E1,2.8024658E1,4.3212437E1,1.6103539E1,3.213163E1,1.7426292E1,4.4499197E0,2.8933163E1,1.2606903E1,1.6416311E1,4.5843363E0,7.2506156E0,1.5600769E1,0E0,0E0,0E0,0E0,0E0,0E0,0E0,0E0,0E0,0E0,0E0,0E0,0E0,0E0,0E0,0E0],"parents":[2147483647,0,0,1,1,2,2,3,3,4,4,5,5,6,6,7,7,8,8,9,9,10,10,11,11,12,12,13,13,14,14],"right_children":[2,4,6,8,10,12,14,16,18,20,22,24,26,28,30,-1,-1,-1,-1,-1,-1,-1,-1,-1,-1,-1,-1,-1,-1,-1,-1],"split_conditions":[4E0,1E-45,1E-45,2.2432302E1,2.1367521E1,2.1227888E1,1.8359375E1,1E-45,8.4E1,1.8426535E1,2.5315454E1,1.15E2,1.06E2,1.6613266E1,2.0395422E1,7.7710417E-3,2.2587664E-3,-2.163016E-3,-8.403911E-3,3.6605184E-3,-2.8250107E-4,-2.8632486E-3,-8.3847E-3,1.847276E-3,-2.0353657E-3,-4.552034E-3,1.6596741E-3,4.6258545E-3,-3.4625703E-4,-2.8829E-3,-5.8775037E-3],"split_indices":[18,24,24,6,6,6,6,9,13,6,6,13,13,6,6,0,0,0,0,0,0,0,0,0,0,0,0,0,0,0,0],"split_type":[0,1,1,0,0,0,0,1,0,0,0,0,0,0,0,0,0,0,0,0,0,0,0,0,0,0,0,0,0,0,0],"sum_hessian":[4.996133E3,3.3217244E3,1.6744082E3,1.7193309E3,1.6023936E3,7.681845E2,9.062237E2,1.645043E3,7.428793E1,1.3644994E3,2.378941E2,6.8493024E2,8.325426E1,1.5294858E2,7.532751E2,6.124826E1,1.5837947E3,5.6900517E1,1.7387417E1,2.216328E2,1.1428666E3,1.7935193E2,5.854218E1,5.5147064E2,1.3345956E2,7.163442E1,1.1619836E1,3.8134117E1,1.1481446E2,4.3864072E2,3.1463437E2],"tree_param":{"num_deleted":"0","num_feature":"32","num_nodes":"31","size_leaf_vector":"1"}},{"base_weights":[-0E0,4.800091E-2,-3.903891E-1,2.899979E-1,-5.588468E-3,-2.747223E-1,-5.9939337E-1,5.670928E-1,2.5816366E-1,2.7051864E-2,-2.6447552E-1,-1.4593744E-1,-4.429189E-1,-5.19942E-1,-9.579651E-3,4.36928E-3,1.3266143E-2,3.227738E-3,3.1640605E-4,-6.180471E-4,8.624279E-4,-1.0976895E-2,-2.295504E-3,-6.6958327E-4,-1.4934884E-2,-1.0462542E-3,-5.981934E-3,-8.100175E-4,-5.841073E-3],"categories":[1,0,2,3],"categories_nodes":[9,13],"categories_segments":[0,1],"categories_sizes":[1,3],"default_left":[1,0,1,0,1,0,0,1,1,0,0,0,0,1,0,0,0,0,0,0,0,0,0,0,0,0,0,0,0],"id":19,"left_children":[1,3,5,7,9,11,13,15,17,19,21,23,25,27,-1,-1,-1,-1,-1,-1,-1,-1,-1,-1,-1,-1,-1,-1,-1],"loss_changes":[9.313695E1,5.7541615E1,1.228434E1,6.264E0,3.0753403E1,7.068434E0,3.954193E0,6.0989265E0,1.0245499E1,1.6873466E1,1.0536144E1,2.0108097E1,7.172447E0,3.7995415E0,0E0,0E0,0E0,0E0,0E0,0E0,0E0,0E0,0E0,0E0,0E0,0E0,0E0,0E0,0E0],"parents":[2147483647,0,0,1,1,2,2,3,3,4,4,5,5,6,6,7,7,8,8,9,9,10,10,11,11,12,12,13,13],"right_children":[2,4,6,8,10,12,14,16,18,20,22,24,26,28,-1,-1,-1,-1,-1,-1,-1,-1,-1,-1,-1,-1,-1,-1,-1],"split_conditions":[2.3138508E1,1.8426535E1,2.2432302E1,1.5615705E1,2.1367521E1,2E0,2.7055151E1,1.99E2,2.02395E1,1E-45,4.95E2,2.718163E1,2.3833004E1,1E-45,-9.579651E-3,4.36928E-3,1.3266143E-2,3.227738E-3,3.1640605E-4,-6.180471E-4,8.624279E-4,-1.0976895E-2,-2.295504E-3,-6.6958327E-4,-1.4934884E-2,-1.0462542E-3,-5.981934E-3,-8.100175E-4,-5.841073E-3],"split_indices":[8,6,6,6,6,3,6,15,8,27,15,8,8,22,0,0,0,0,0,0,0,0,0,0,0,0,0,0,0],"split_type":[0,0,0,0,0,0,0,0,0,1,0,0,0,1,0,0,0,0,0,0,0,0,0,0,0,0,0,0,0],"sum_hessian":[4.959459E3,4.4150977E3,5.4436115E2,8.0382587E2,3.6112717E3,3.5352283E2,1.9083832E2,7.957759E1,7.242483E2,3.20352E3,4.077517E2,2.0359682E2,1.4992603E2,1.585259E2,3.2312424E1,6.9072495E1,1.0505091E1,5.600803E2,1.6416797E2,1.2740459E3,1.9294742E3,1.5239661E1,3.9251205E2,1.930357E2,1.0561117E1,4.9197464E1,1.0072856E2,2.2208704E1,1.363172E2],"tree_param":{"num_deleted":"0","num_feature":"32","num_nodes":"29","size_leaf_vector":"1"}},{"base_weights":[1.1386616E-2,8.147171E-2,-3.073941E-1,1.4342454E-1,-1.0570017E-1,-2.512443E-1,-7.925204E-3,2.3845233E-1,5.7737693E-2,-6.209834E-2,-3.5394442E-1,-9.977327E-2,-3.996891E-1,3.3606556E-3,1.2582564E-3,3.4280212E-3,4.6158917E-4,-3.9036796E-4,-6.6504674E-3,-7.2031175E-3,-2.0101464E-3,-2.318001E-3,3.5014386E-5,-0E0,-4.351867E-3],"categories":[],"categories_nodes":[],"categories_segments":[],"categories_sizes":[],"default_left":[1,1,1,0,0,0,0,0,0,1,0,1,0,0,0,0,0,0,0,0,0,0,0,0,0],"id":20,"left_children":[1,3,5,7,9,11,-1,13,15,17,19,21,23,-1,-1,-1,-1,-1,-1,-1,-1,-1,-1,-1,-1],"loss_changes":[1.1197796E2,4.780789E1,2.354E1,2.4938812E1,1.0629086E1,1.7731106E1,0E0,1.5631989E1,5.008219E0,1.1412968E1,7.427038E0,5.7458344E0,5.978714E0,0E0,0E0,0E0,0E0,0E0,0E0,0E0,0E0,0E0,0E0,0E0,0E0],"parents":[2147483647,0,0,1,1,2,2,3,3,4,4,5,5,7,7,8,8,9,9,10,10,11,11,12,12],"right_children":[2,4,6,8,10,12,-1,14,16,18,20,22,24,-1,-1,-1,-1,-1,-1,-1,-1,-1,-1,-1,-1],"split_conditions":[2.0811655E1,1.9571682E1,2.718163E1,2E0,2.3634033E1,2E0,-7.925204E-3,3E0,2.7E1,1.46E2,6.00001E0,2.3978953E0,2.7725887E0,3.3606556E-3,1.2582564E-3,3.4280212E-3,4.6158917E-4,-3.9036796E-4,-6.6504674E-3,-7.2031175E-3,-2.0101464E-3,-2.318001E-3,3.5014386E-5,-0E0,-4.351867E-3],"split_indices":[6,8,8,3,8,3,0,18,13,13,30,20,21,0,0,0,0,0,0,0,0,0,0,0,0],"split_type":[0,0,0,0,0,0,0,0,0,0,0,0,0,0,0,0,0,0,0,0,0,0,0,0,0],"sum_hessian":[5.0221353E3,4.1195757E3,9.025593E2,3.0991272E3,1.0204486E3,8.107926E2,9.176675E1,1.4639264E3,1.6352009E3,8.7143054E2,1.4901802E2,4.046483E2,4.061443E2,7.794664E2,6.8446E2,6.0444042E1,1.5747568E3,8.4093567E2,3.0494905E1,4.1948277E1,1.0706974E2,1.8184602E2,2.2280228E2,3.1987858E1,3.741564E2],"tree_param":{"num_deleted":"0","num_feature":"32","num_nodes":"25","size_leaf_vector":"1"}},{"base_weights":[1.0744305E-3,4.7479264E-2,-4.307379E-1,9.774495E-2,-7.2868474E-2,-3.0083922E-1,-5.6040585E-1,2.1036127E-1,-1.7750682E-2,8.03083E-2,-2.3134302E-1,-3.4469628E-1,2.8822126E-3,-6.071496E-1,3.9856434E-3,2.3310562E-3,-2.932085E-3,2.4565659E-3,-1.038867E-3,1.2981482E-3,-1.7180752E-3,-8.4131985E-4,-4.179571E-3,-2.212241E-3,-5.6920606E-3,-4.7810012E-3,-8.2823755E-3],"categories":[0,2,0,1,2,0],"categories_nodes":[2,3,4],"categories_segments":[0,2,5],"categories_sizes":[2,3,1],"default_left":[1,0,1,1,1,1,1,1,0,0,1,1,0,0,0,0,0,0,0,0,0,0,0,0,0,0,0],"id":21,"left_children":[1,3,5,7,9,11,13,15,17,19,21,23,-1,25,-1,-1,-1,-1,-1,-1,-1,-1,-1,-1,-1,-1,-1],"loss_changes":[9.942166E1,2.7244125E1,7.2426834E0,4.155059E1,3.2188354E1,6.3681297E0,1.0833046E1,1.843003E1,3.5376278E1,8.294613E0,1.740588E1,5.5544376E0,0E0,5.1648026E0,0E0,0E0,0E0,0E0,0E0,0E0,0E0,0E0,0E0,0E0,0E0,0E0,0E0],"parents":[2147483647,0,0,1,1,2,2,3,3,4,4,5,5,6,6,7,7,8,8,9,9,10,10,11,11,13,13],"right_children":[2,4,6,8,10,12,14,16,18,20,22,24,-1,26,-1,-1,-1,-1,-1,-1,-1,-1,-1,-1,-1,-1,-1],"split_conditions":[2.3495237E1,4E0,1E-45,1E-45,1E-45,1.4E2,5.14E2,2.236744E1,1.9562956E1,1.26E2,1.8611496E1,8E1,2.8822126E-3,2.4690405E1,3.9856434E-3,2.3310562E-3,-2.932085E-3,2.4565659E-3,-1.038867E-3,1.2981482E-3,-1.7180752E-3,-8.4131985E-4,-4.179571E-3,-2.212241E-3,-5.6920606E-3,-4.7810012E-3,-8.2823755E-3],"split_indices":[8,18,25,24,24,13,15,6,6,13,6,13,0,6,0,0,0,0,0,0,0,0,0,0,0,0,0],"split_type":[0,0,1,1,1,0,0,0,0,0,0,0,0,0,0,0,0,0,0,0,0,0,0,0,0,0,0],"sum_hessian":[4.9807173E3,4.499502E3,4.812155E2,3.179733E3,1.3197692E3,2.4426297E2,2.3695253E2,1.614314E3,1.5654188E3,6.6789575E2,6.518734E2,2.2892099E2,1.5341988E1,2.2693723E2,1.0015305E1,1.5464575E3,6.78565E1,3.828921E2,1.1825267E3,5.6159076E2,1.0630502E2,3.6741232E2,2.8446106E2,1.5058096E2,7.834003E1,1.4617142E2,8.07658E1],"tree_param":{"num_deleted":"0","num_feature":"32","num_nodes":"27","size_leaf_vector":"1"}},{"base_weights":[4.947056E-4,7.065965E-2,-3.183812E-1,2.5550145E-1,2.3260934E-2,-2.553569E-1,-7.693494E-1,3.529801E-1,1.2699042E-1,9.339017E-2,-1.17564686E-1,-6.254633E-2,-3.4881824E-1,-5.985737E-1,-1.0436425E-2,1.2053815E-2,3.321647E-3,5.333398E-3,5.381123E-4,1.4400905E-3,-6.028598E-5,-1.072178E-4,-2.302211E-3,-1.3825053E-3,3.3540034E-3,-2.8412032E-3,-6.819971E-3,-2.0933195E-3,-7.2785793E-3],"categories":[3,4,2,3,4,3,1],"categories_nodes":[4,5,9,11],"categories_segments":[0,2,5,6],"categories_sizes":[2,3,1,1],"default_left":[1,0,0,1,1,1,1,0,0,1,0,1,0,0,0,0,0,0,0,0,0,0,0,0,0,0,0,0,0],"id":22,"left_children":[1,3,5,7,9,11,13,15,17,19,21,23,25,27,-1,-1,-1,-1,-1,-1,-1,-1,-1,-1,-1,-1,-1,-1,-1],"loss_changes":[1.1241423E2,3.5903725E1,2.471183E1,1.002433E1,3.2480568E1,1.3941715E1,3.461586E0,6.840744E0,1.0300444E1,1.1218876E1,1.2871723E1,7.7429786E0,1.0520622E1,2.5588055E0,0E0,0E0,0E0,0E0,0E0,0E0,0E0,0E0,0E0,0E0,0E0,0E0,0E0,0E0,0E0],"parents":[2147483647,0,0,1,1,2,2,3,3,4,4,5,5,6,6,7,7,8,8,9,9,10,10,11,11,12,12,13,13],"right_children":[2,4,6,8,10,12,14,16,18,20,22,24,26,28,-1,-1,-1,-1,-1,-1,-1,-1,-1,-1,-1,-1,-1,-1,-1],"split_conditions":[2.0811655E1,1.8426535E1,2.6271345E1,1.8369003E1,1E-45,1E-45,1.9909973E1,6.86E2,1.2527629E0,1E-45,1.9095426E0,1E-45,2.4638534E0,2.7055151E1,-1.0436425E-2,1.2053815E-2,3.321647E-3,5.333398E-3,5.381123E-4,1.4400905E-3,-6.028598E-5,-1.072178E-4,-2.302211E-3,-1.3825053E-3,3.3540034E-3,-2.8412032E-3,-6.819971E-3,-2.0933195E-3,-7.2785793E-3],"split_indices":[6,6,6,8,26,26,5,17,23,22,23,14,23,6,0,0,0,0,0,0,0,0,0,0,0,0,0,0,0],"split_type":[0,0,0,0,1,1,0,0,0,1,0,1,0,0,0,0,0,0,0,0,0,0,0,0,0,0,0,0,0],"sum_hessian":[5.0353965E3,4.1298213E3,9.055755E2,8.3855365E2,3.2912673E3,7.964957E2,1.0907976E2,4.7241605E2,3.6613763E2,2.2018704E3,1.089397E3,2.635365E2,5.329592E2,6.949163E1,3.9588127E1,1.0102515E1,4.6231354E2,5.3780018E1,3.123576E2,1.4656775E3,7.36193E2,5.636864E2,5.257106E2,2.2353188E2,4.0004627E1,4.4882468E2,8.413453E1,1.9261446E1,5.0230186E1],"tree_param":{"num_deleted":"0","num_feature":"32","num_nodes":"29","size_leaf_vector":"1"}},{"base_weights":[1.7738897E-2,7.257601E-2,-3.7375805E-1,1.2388195E-1,2.2164863E-3,-3.0172783E-1,-6.6639584E-1,2.2873768E-1,7.8051805E-2,1.923607E-2,-6.2725055E-1,-3.879585E-2,-4.0638432E-1,-5.576091E-1,-1.1158375E-2,2.3863462E-3,-1.7720703E-3,1.3187367E-3,-9.3562744E-4,2.9919972E-3,1.07424166E-4,-1.4266044E-2,-3.5197E-3,-4.1295835E-3,7.364415E-4,6.778177E-3,-4.458979E-3,-1.1983791E-2,-4.7052917E-3],"categories":[2,6,8,10,11,0,1,4,5,6,9,10,11,0,4],"categories_nodes":[1,5,8],"categories_segments":[0,5,13],"categories_sizes":[5,8,2],"default_left":[1,1,0,0,1,1,1,1,1,0,0,0,0,0,0,0,0,0,0,0,0,0,0,0,0,0,0,0,0],"id":23,"left_children":[1,3,5,7,9,11,13,15,17,19,21,23,25,27,-1,-1,-1,-1,-1,-1,-1,-1,-1,-1,-1,-1,-1,-1,-1],"loss_changes":[1.0678637E2,1.5676081E1,1.190065E1,1.1818909E1,1.925674E1,1.3114117E1,4.0827866E0,3.118473E0,1.631805E1,3.9867995E0,8.61754E0,6.35679E0,1.4754299E1,3.7212029E0,0E0,0E0,0E0,0E0,0E0,0E0,0E0,0E0,0E0,0E0,0E0,0E0,0E0,0E0,0E0],"parents":[2147483647,0,0,1,1,2,2,3,3,4,4,5,5,6,6,7,7,8,8,9,9,10,10,11,11,12,12,13,13],"right_children":[2,4,6,8,10,12,14,16,18,20,22,24,26,28,-1,-1,-1,-1,-1,-1,-1,-1,-1,-1,-1,-1,-1,-1,-1],"split_conditions":[2.289282E1,1E-45,2.7055151E1,6.00001E0,2.0545694E1,1E-45,2.6666666E1,9.8E1,1E-45,2.3978953E0,2.093212E1,2.2189348E1,1.882711E1,2.7725887E0,-1.1158375E-2,2.3863462E-3,-1.7720703E-3,1.3187367E-3,-9.3562744E-4,2.9919972E-3,1.07424166E-4,-1.4266044E-2,-3.5197E-3,-4.1295835E-3,7.364415E-4,6.778177E-3,-4.458979E-3,-1.1983791E-2,-4.7052917E-3],"split_indices":[7,4,7,30,5,4,5,31,25,21,5,5,5,21,0,0,0,0,0,0,0,0,0,0,0,0,0,0,0],"split_type":[0,1,0,0,0,1,0,0,1,0,0,0,0,0,0,0,0,0,0,0,0,0,0,0,0,0,0,0,0],"sum_hessian":[4.988088E3,4.377493E3,6.105945E2,2.5232944E3,1.8541987E3,4.9274677E2,1.1784775E2,7.607954E2,1.762499E3,1.8069408E3,4.7257877E1,1.4301476E2,3.49732E2,9.669117E1,2.1156578E1,7.450974E2,1.5697996E1,1.3461484E3,4.163506E2,4.9728752E1,1.757212E3,1.1164414E1,3.6093464E1,3.5095535E1,1.0791923E2,1.1402156E1,3.3832983E2,1.0178944E1,8.651223E1],"tree_param":{"num_deleted":"0","num_feature":"32","num_nodes":"29","size_leaf_vector":"1"}},{"base_weights":[1.0244788E-2,8.8991165E-2,-2.6499462E-1,1.059641E-1,-2.9313517E-1,-2.2233333E-1,-6.751034E-1,1.5143442E-1,-3.558342E-4,-0E0,-3.967474E-1,-2.3822416E-1,6.7633176E-3,4.3740572E-5,-7.943622E-1,2.5983988E-3,3.3587145E-4,6.12344E-4,-2.9820944E-3,1.974793E-3,-2.7044918E-3,-5.3473967E-3,1.4092871E-3,-6.1750866E-4,-3.8845786E-3,-8.630907E-3,-3.2356866E-3],"categories":[2,0,1,2],"categories_nodes":[5,6],"categories_segments":[0,1],"categories_sizes":[1,3],"default_left":[1,1,1,0,0,1,0,0,0,0,1,0,0,0,0,0,0,0,0,0,0,0,0,0,0,0,0],"id":24,"left_children":[1,3,5,7,9,11,13,15,17,19,21,23,-1,-1,25,-1,-1,-1,-1,-1,-1,-1,-1,-1,-1,-1,-1],"loss_changes":[1.0818204E2,2.5043537E1,1.850962E1,1.8169704E1,5.180066E0,1.3944412E1,9.080624E0,3.3142563E1,2.0598747E1,2.1526153E0,9.435518E0,2.5813412E1,0E0,0E0,1.6672287E0,0E0,0E0,0E0,0E0,0E0,0E0,0E0,0E0,0E0,0E0,0E0,0E0],"parents":[2147483647,0,0,1,1,2,2,3,3,4,4,5,5,6,6,7,7,8,8,9,9,10,10,11,11,14,14],"right_children":[2,4,6,8,10,12,14,16,18,20,22,24,-1,-1,26,-1,-1,-1,-1,-1,-1,-1,-1,-1,-1,-1,-1],"split_conditions":[2.0342798E1,2.2666666E1,2.6838648E1,4E0,3E0,1E-45,1E-45,2.3E1,2.6E1,2.4E1,1.9817844E1,2.3E1,6.7633176E-3,4.3740572E-5,3.2045876E1,2.5983988E-3,3.3587145E-4,6.12344E-4,-2.9820944E-3,1.974793E-3,-2.7044918E-3,-5.3473967E-3,1.4092871E-3,-6.1750866E-4,-3.8845786E-3,-8.630907E-3,-3.2356866E-3],"split_indices":[6,7,7,18,18,9,1,0,0,0,6,0,0,0,7,0,0,0,0,0,0,0,0,0,0,0,0],"split_type":[0,0,0,0,0,1,1,0,0,0,0,0,0,0,0,0,0,0,0,0,0,0,0,0,0,0,0],"sum_hessian":[4.999403E3,3.8900845E3,1.1093186E3,3.727159E3,1.6292535E2,1.00701807E3,1.0230055E2,2.6172356E3,1.1099233E3,4.1081646E1,1.21843704E2,9.9062134E2,1.639677E1,1.4023889E1,8.8276665E1,1.3588019E3,1.2584337E3,9.16964E2,1.929594E2,2.499162E1,1.6090027E1,9.843954E1,2.3404167E1,4.5859692E2,5.320244E2,7.517054E1,1.3106125E1],"tree_param":{"num_deleted":"0","num_feature":"32","num_nodes":"27","size_leaf_vector":"1"}},{"base_weights":[1.323575E-3,1.3733873E-1,-1.3453571E-1,2.6084706E-1,3.727799E-2,-6.6558756E-2,-2.6491764E-1,-1.3994887E-1,2.7680382E-1,-6.320414E-2,1.000574E-1,-3.2697427E-1,-4.805728E-2,-2.8991637E-1,1.1058334E-2,-6.816181E-3,1.5603146E-4,7.5627915E-3,2.4765688E-3,-4.2161538E-4,-9.11892E-3,2.151796E-3,-1.061953E-3,-2.0315836E-3,-1.3865728E-2,-1.5086166E-5,-5.837283E-3,-1.8832418E-3,-6.6166613E-3],"categories":[],"categories_nodes":[],"categories_segments":[],"categories_sizes":[],"default_left":[0,0,0,0,1,0,1,0,0,1,1,0,1,1,0,0,0,0,0,0,0,0,0,0,0,0,0,0,0],"id":25,"left_children":[1,3,5,7,9,11,13,15,17,19,21,23,25,27,-1,-1,-1,-1,-1,-1,-1,-1,-1,-1,-1,-1,-1,-1,-1],"loss_changes":[9.217579E1,3.0551285E1,2.1752686E1,7.253731E0,8.764399E0,7.5403886E0,2.8275593E1,4.0543313E0,1.3983299E1,8.4371605E0,2.047313E1,1.2234298E1,3.7752254E1,3.0661156E1,0E0,0E0,0E0,0E0,0E0,0E0,0E0,0E0,0E0,0E0,0E0,0E0,0E0,0E0,0E0],"parents":[2147483647,0,0,1,1,2,2,3,3,4,4,5,5,6,6,7,7,8,8,9,9,10,10,11,11,12,12,13,13],"right_children":[2,4,6,8,10,12,14,16,18,20,22,24,26,28,-1,-1,-1,-1,-1,-1,-1,-1,-1,-1,-1,-1,-1,-1,-1],"split_conditions":[2.3E1,3E0,4E0,9.01E2,4.7E1,7.65E2,8.31E2,8.11E2,1.8666666E1,3.41E2,2.0811655E1,6.89E2,2.3495237E1,2.3422369E1,1.1058334E-2,-6.816181E-3,1.5603146E-4,7.5627915E-3,2.4765688E-3,-4.2161538E-4,-9.11892E-3,2.151796E-3,-1.061953E-3,-2.0315836E-3,-1.3865728E-2,-1.5086166E-5,-5.837283E-3,-1.8832418E-3,-6.6166613E-3],"split_indices":[0,18,18,15,13,15,15,17,7,17,7,15,7,7,0,0,0,0,0,0,0,0,0,0,0,0,0,0,0],"split_type":[0,0,0,0,0,0,0,0,0,0,0,0,0,0,0,0,0,0,0,0,0,0,0,0,0,0,0,0,0],"sum_hessian":[4.9879863E3,2.4962415E3,2.4917449E3,1.1127396E3,1.3835018E3,1.6428832E3,8.488617E2,4.020245E1,1.0725371E3,5.258766E2,8.5762524E2,1.0538146E2,1.5375017E3,8.3438226E2,1.4479419E1,1.0395999E1,2.9806452E1,5.9482067E1,1.01305505E3,5.1431335E2,1.1563242E1,5.5352E2,3.0410522E2,9.521151E1,1.0169956E1,1.4163047E3,1.2119699E2,6.574254E2,1.7695688E2],"tree_param":{"num_deleted":"0","num_feature":"32","num_nodes":"29","size_leaf_vector":"1"}},{"base_weights":[-7.917778E-3,3.652444E-2,-4.2646784E-1,8.223172E-2,-2.0147595E-1,-2.6225793E-1,-5.588783E-1,2.3828343E-1,4.623177E-2,-1.10657096E-1,-5.641292E-1,-1.2445062E-1,-1.0254966E-2,-1.3490252E-1,-6.1996377E-1,2.0507595E-3,3.9513772E-3,4.618726E-3,3.2977093E-4,-1.6752394E-3,4.903481E-4,-6.0841083E-3,-2.0633002E-3,1.1308142E-3,-2.1901054E-3,9.850229E-4,-2.9349134E-3,-5.1612845E-3,-7.855379E-3],"categories":[1,6,9,10,11,0,2,3,0,1,1,2,3,2],"categories_nodes":[2,6,8,9,11,13],"categories_segments":[0,5,8,9,10,13],"categories_sizes":[5,3,1,1,3,1],"default_left":[1,0,1,0,1,0,1,1,0,0,1,1,0,0,1,0,0,0,0,0,0,0,0,0,0,0,0,0,0],"id":26,"left_children":[1,3,5,7,9,11,13,15,17,19,21,23,-1,25,27,-1,-1,-1,-1,-1,-1,-1,-1,-1,-1,-1,-1,-1,-1],"loss_changes":[9.343086E1,4.90464E1,9.663734E0,2.1034954E1,2.3190248E1,2.1849508E1,6.071556E0,3.0771446E0,1.65219E1,5.401171E0,1.4483185E0,4.2919197E0,0E0,1.5008888E0,2.6201859E0,0E0,0E0,0E0,0E0,0E0,0E0,0E0,0E0,0E0,0E0,0E0,0E0,0E0,0E0],"parents":[2147483647,0,0,1,1,2,2,3,3,4,4,5,5,6,6,7,7,8,8,9,9,10,10,11,11,13,13,14,14],"right_children":[2,4,6,8,10,12,14,16,18,20,22,24,-1,26,28,-1,-1,-1,-1,-1,-1,-1,-1,-1,-1,-1,-1,-1,-1],"split_conditions":[2.3495237E1,2.2772672E0,1E-45,1.8426535E1,2.0395422E1,2.8147871E1,1E-45,1.642365E1,1E-45,1E-45,2.093212E1,1E-45,-1.0254966E-2,1E-45,1.8986591E1,2.0507595E-3,3.9513772E-3,4.618726E-3,3.2977093E-4,-1.6752394E-3,4.903481E-4,-6.0841083E-3,-2.0633002E-3,1.1308142E-3,-2.1901054E-3,9.850229E-4,-2.9349134E-3,-5.1612845E-3,-7.855379E-3],"split_indices":[7,23,4,6,6,7,22,5,9,27,5,22,0,27,5,0,0,0,0,0,0,0,0,0,0,0,0,0,0],"split_type":[0,0,1,0,0,0,1,0,1,1,0,1,0,1,0,0,0,0,0,0,0,0,0,0,0,0,0,0,0],"sum_hessian":[5.001834E3,4.5195605E3,4.8227322E2,3.794958E3,7.246025E2,2.1867E2,2.636032E2,7.0614496E2,3.0888132E3,5.816988E2,1.4290369E2,1.8634596E2,3.232404E1,3.52621E1,2.2834111E2,5.880483E2,1.1809667E2,9.31153E1,2.9956978E3,4.33566E2,1.481328E2,1.2467223E2,1.8231457E1,5.0048412E1,1.3629755E2,1.1716455E1,2.3545645E1,1.4407143E2,8.426969E1],"tree_param":{"num_deleted":"0","num_feature":"32","num_nodes":"29","size_leaf_vector":"1"}},{"base_weights":[-1.8282555E-2,1.1897519E-1,-1.976197E-1,1.8332031E-1,3.3849515E-2,-7.176039E-2,-3.1881657E-1,2.0059247E-1,-2.0847434E-1,9.195767E-2,-2.064715E-1,1.6232301E-1,-1.4430581E-1,-2.2772598E-1,-5.980382E-1,2.659647E-3,1.2420517E-3,3.0258216E-5,-9.542856E-3,1.0905068E-3,-3.5803427E-3,-2.7588105E-3,1.0374523E-3,4.0072235E-3,-3.471714E-4,-1.1911449E-3,-1.0255309E-2,1.6957091E-3,-2.8046116E-3,-4.143848E-3,-7.286431E-3],"categories":[0,1,5,6,10,11,3,4,2,3,4,1,3,0],"categories_nodes":[0,1,2,7,8,9,14],"categories_segments":[0,1,6,8,11,12,13],"categories_sizes":[1,5,2,3,1,1,1],"default_left":[1,1,1,1,1,0,1,1,1,1,1,0,0,0,1,0,0,0,0,0,0,0,0,0,0,0,0,0,0,0,0],"id":27,"left_children":[1,3,5,7,9,11,13,15,17,19,21,23,25,27,29,-1,-1,-1,-1,-1,-1,-1,-1,-1,-1,-1,-1,-1,-1,-1,-1],"loss_changes":[1.2272204E2,1.5224407E1,3.260672E1,1.0812164E1,1.6926765E1,1.8072252E1,2.7099434E1,7.2686424E0,1.1215219E1,7.335849E0,5.216552E0,1.2052185E1,1.6979843E1,1.751397E1,5.2673035E0,0E0,0E0,0E0,0E0,0E0,0E0,0E0,0E0,0E0,0E0,0E0,0E0,0E0,0E0,0E0,0E0],"parents":[2147483647,0,0,1,1,2,2,3,3,4,4,5,5,6,6,7,7,8,8,9,9,10,10,11,11,12,12,13,13,14,14],"right_children":[2,4,6,8,10,12,14,16,18,20,22,24,26,28,30,-1,-1,-1,-1,-1,-1,-1,-1,-1,-1,-1,-1,-1,-1,-1,-1],"split_conditions":[1E-45,1E-45,1E-45,2.3833004E1,2.1367521E1,2.0719788E1,2.2600264E1,1E-45,1E-45,1E-45,3.4339871E0,4E0,5E0,1.9227688E1,1E-45,2.659647E-3,1.2420517E-3,3.0258216E-5,-9.542856E-3,1.0905068E-3,-3.5803427E-3,-2.7588105E-3,1.0374523E-3,4.0072235E-3,-3.471714E-4,-1.1911449E-3,-1.0255309E-2,1.6957091E-3,-2.8046116E-3,-4.143848E-3,-7.286431E-3],"split_indices":[24,4,26,7,7,7,7,26,14,25,21,18,18,7,25,0,0,0,0,0,0,0,0,0,0,0,0,0,0,0,0],"split_type":[1,1,1,0,0,0,0,1,1,1,0,0,0,0,1,0,0,0,0,0,0,0,0,0,0,0,0,0,0,0,0],"sum_hessian":[4.9823623E3,2.8191335E3,2.163229E3,1.5988384E3,1.2202952E3,1.0652577E3,1.0979712E3,1.5337794E3,6.505898E1,9.860432E2,2.3425197E2,2.4876549E2,8.164922E2,8.306028E2,2.6736844E2,8.194113E2,7.1436816E2,4.964858E1,1.5410406E1,9.521071E2,3.3936085E1,1.9405724E2,4.0194744E1,1.148604E2,1.3390509E2,7.9491437E2,2.1577837E1,9.510618E1,7.354966E2,1.1431707E2,1.5305136E2],"tree_param":{"num_deleted":"0","num_feature":"32","num_nodes":"31","size_leaf_vector":"1"}},{"base_weights":[-1.1615314E-2,1.416302E-1,-1.5293537E-1,2.2429231E-1,6.526045E-2,-5.2553643E-2,-2.5556645E-1,2.3536761E-1,-5.501852E-3,1.2679371E-1,-2.1990985E-1,8.249809E-2,-2.1142699E-1,-1.3360386E-1,-4.6729252E-1,2.2734832E-3,9.7216945E-3,-1.9911646E-3,1.5020835E-3,-6.371788E-3,-1.1424925E-3,-9.683801E-4,1.0159648E-3,-1.9424359E-3,-9.546382E-3,4.750503E-3,-1.5224968E-3,-3.7503971E-3,-6.300744E-3],"categories":[0,1],"categories_nodes":[0],"categories_segments":[0],"categories_sizes":[2],"default_left":[1,0,0,1,1,1,1,1,0,0,0,0,1,0,1,0,0,0,0,0,0,0,0,0,0,0,0,0,0],"id":28,"left_children":[1,3,5,7,9,11,13,15,-1,17,19,21,23,25,27,-1,-1,-1,-1,-1,-1,-1,-1,-1,-1,-1,-1,-1,-1],"loss_changes":[1.0878177E2,1.4900272E1,2.6645702E1,9.543793E0,2.1964264E1,2.861397E1,3.2676964E1,5.5002747E0,0E0,7.863243E0,8.956759E0,2.4510021E0,6.6829243E0,8.992084E0,6.020958E0,0E0,0E0,0E0,0E0,0E0,0E0,0E0,0E0,0E0,0E0,0E0,0E0,0E0,0E0],"parents":[2147483647,0,0,1,1,2,2,3,3,4,4,5,5,6,6,7,7,9,9,10,10,11,11,12,12,13,13,14,14],"right_children":[2,4,6,8,10,12,14,16,-1,18,20,22,24,26,28,-1,-1,-1,-1,-1,-1,-1,-1,-1,-1,-1,-1,-1,-1],"split_conditions":[1E-45,2E0,2E0,2.4444445E1,2.0077747E1,1.8552876E1,1.9223375E1,3.7612002E0,-5.501852E-3,1.057E3,2.100073E1,1.7333334E1,2.4973986E1,4.36E2,1.6023073E1,2.2734832E-3,9.7216945E-3,-1.9911646E-3,1.5020835E-3,-6.371788E-3,-1.1424925E-3,-9.683801E-4,1.0159648E-3,-1.9424359E-3,-9.546382E-3,4.750503E-3,-1.5224968E-3,-3.7503971E-3,-6.300744E-3],"split_indices":[24,3,3,6,6,6,6,21,0,17,5,5,5,17,5,0,0,0,0,0,0,0,0,0,0,0,0,0,0],"split_type":[1,0,0,0,0,0,0,0,0,0,0,0,0,0,0,0,0,0,0,0,0,0,0,0,0,0,0,0,0],"sum_hessian":[5.0224736E3,2.4061748E3,2.6162988E3,1.149188E3,1.2569868E3,1.3275769E3,1.2887218E3,1.1342657E3,1.4922232E1,1.0367845E3,2.202023E2,7.141865E2,6.133903E2,8.207035E2,4.6801834E2,1.1234089E3,1.0856766E1,6.66262E1,9.7015826E2,4.257053E1,1.7763176E2,6.369374E1,6.504928E2,6.008564E2,1.2533949E1,2.2793129E1,7.979104E2,3.0266586E2,1.6535248E2],"tree_param":{"num_deleted":"0","num_feature":"32","num_nodes":"29","size_leaf_vector":"1"}},{"base_weights":[-3.0958802E-3,4.832199E-2,-5.257713E-1,6.751111E-2,-1.699548E-1,4.1529682E-4,-5.556489E-1,1.22551456E-1,-1.7730668E-1,-1.1572541E-1,-1.190904E-2,-3.9665675E-1,-7.326624E-1,6.4804438E-3,1.0867357E-3,-9.823537E-4,-4.398151E-3,-3.809132E-3,3.1391584E-4,-6.3716504E-3,-2.5420599E-3,-1.7665707E-3,-7.845845E-3],"categories":[2],"categories_nodes":[11],"categories_segments":[0],"categories_sizes":[1],"default_left":[1,1,0,0,0,0,1,0,1,0,0,1,0,0,0,0,0,0,0,0,0,0,0],"id":29,"left_children":[1,3,5,7,9,-1,11,13,15,17,-1,19,21,-1,-1,-1,-1,-1,-1,-1,-1,-1,-1],"loss_changes":[1.3534969E2,1.9028027E1,8.162323E0,5.6572903E1,1.8892982E1,0E0,1.0978577E1,2.4288815E1,1.5403814E1,1.3903152E1,0E0,6.9765778E0,4.829399E0,0E0,0E0,0E0,0E0,0E0,0E0,0E0,0E0,0E0,0E0],"parents":[2147483647,0,0,1,1,2,2,3,3,4,4,6,6,7,7,8,8,9,9,11,11,12,12],"right_children":[2,4,6,8,10,-1,12,14,16,18,-1,20,22,-1,-1,-1,-1,-1,-1,-1,-1,-1,-1],"split_conditions":[2.3601276E1,1.8902039E1,1.9909973E1,2.6E1,3E1,4.1529682E-4,2.3634033E1,1.8E1,1.9723866E1,2.4323229E1,-1.190904E-2,1E-45,2E1,6.4804438E-3,1.0867357E-3,-9.823537E-4,-4.398151E-3,-3.809132E-3,3.1391584E-4,-6.3716504E-3,-2.5420599E-3,-1.7665707E-3,-7.845845E-3],"split_indices":[7,5,5,0,0,0,8,0,8,8,0,12,0,0,0,0,0,0,0,0,0,0,0],"split_type":[0,0,0,0,0,0,0,0,0,0,0,1,0,0,0,0,0,0,0,0,0,0,0],"sum_hessian":[5.0185083E3,4.5672993E3,4.5120932E2,4.202443E3,3.6485632E2,2.0899809E1,4.303095E2,3.434404E3,7.680388E2,3.4739453E2,1.7461815E1,2.2968753E2,2.0062196E2,8.650055E1,3.3479033E3,5.9318585E2,1.7485297E2,1.2637569E2,2.2101883E2,8.2813576E1,1.4687396E2,1.8783504E1,1.8183846E2],"tree_param":{"num_deleted":"0","num_feature":"32","num_nodes":"23","size_leaf_vector":"1"}},{"base_weights":[-3.2612234E-3,2.8797178E-2,-4.557811E-1,6.256159E-2,-3.620451E-1,-3.8639662E-1,-1.0654881E-2,5.5686E-1,5.3401954E-2,6.1965235E-2,-4.6114922E-1,-4.106911E-1,7.8809756E-4,1.4500497E-3,8.61243E-3,1.481166E-3,-3.5853474E-4,-1.56423E-3,3.6412312E-3,-5.3293956E-3,-2.8291063E-3,-2.992821E-3,-5.2883015E-3],"categories":[0,0],"categories_nodes":[7,9],"categories_segments":[0,1],"categories_sizes":[1,1],"default_left":[1,1,1,0,0,1,0,0,0,0,1,0,0,0,0,0,0,0,0,0,0,0,0],"id":30,"left_children":[1,3,5,7,9,11,-1,13,15,17,19,21,-1,-1,-1,-1,-1,-1,-1,-1,-1,-1,-1],"loss_changes":[7.230695E1,6.073436E1,1.2498528E1,1.8674963E1,1.5754845E1,3.6962013E0,0E0,8.458385E0,3.5483482E1,4.6509647E0,2.9971275E0,2.9203377E0,0E0,0E0,0E0,0E0,0E0,0E0,0E0,0E0,0E0,0E0,0E0],"parents":[2147483647,0,0,1,1,2,2,3,3,4,4,5,5,7,7,8,8,9,9,10,10,11,11],"right_children":[2,4,6,8,10,12,-1,14,16,18,20,22,-1,-1,-1,-1,-1,-1,-1,-1,-1,-1,-1],"split_conditions":[1.9979189E1,2.3337685E1,2.7630367E1,1.8467636E1,2.944439E0,2.6709402E1,-1.0654881E-2,1E-45,2E0,1E-45,3.218876E0,2E0,7.8809756E-4,1.4500497E-3,8.61243E-3,1.481166E-3,-3.5853474E-4,-1.56423E-3,3.6412312E-3,-5.3293956E-3,-2.8291063E-3,-2.992821E-3,-5.2883015E-3],"split_indices":[5,8,8,8,21,8,0,27,3,27,21,3,0,0,0,0,0,0,0,0,0,0,0],"split_type":[0,0,0,0,0,0,0,1,0,1,0,0,0,0,0,0,0,0,0,0,0,0,0],"sum_hessian":[4.9548066E3,4.624955E3,3.2985165E2,4.259545E3,3.654101E2,2.9763712E2,3.2214542E1,7.549859E1,4.1840464E3,6.731608E1,2.9809402E2,2.8490906E2,1.2728063E1,3.3487442E1,4.201115E1,2.0353759E3,2.1486704E3,3.715625E1,3.0159828E1,2.0848914E2,8.960489E1,1.5100566E2,1.3390338E2],"tree_param":{"num_deleted":"0","num_feature":"32","num_nodes":"23","size_leaf_vector":"1"}},{"base_weights":[2.1026991E-3,4.824933E-2,-3.0383378E-1,7.175366E-2,-4.1661033E-1,-7.218999E-2,-4.974677E-1,1.6742824E-1,-3.1767458E-2,6.4858403E-3,-4.819355E-1,8.599704E-2,-4.8312527E-1,-1.9929126E-1,-7.4990803E-1,2.252078E-3,-1.0974655E-3,1.6495315E-3,-7.5435085E-4,-1.1753557E-2,-4.152644E-3,1.4618821E-3,-5.761926E-3,1.3100613E-3,-5.831165E-3,-0E0,-2.9254316E-3,-3.1345359E-3,-8.444189E-3],"categories":[0,1,0,5,9,3,4,1,2,3,4,4],"categories_nodes":[4,5,6,8,11],"categories_segments":[0,2,5,7,11],"categories_sizes":[2,3,2,4,1],"default_left":[1,1,0,0,1,1,1,1,1,0,0,1,0,0,0,0,0,0,0,0,0,0,0,0,0,0,0,0,0],"id":31,"left_children":[1,3,5,7,9,11,13,15,17,-1,19,21,23,25,27,-1,-1,-1,-1,-1,-1,-1,-1,-1,-1,-1,-1,-1,-1],"loss_changes":[7.022832E1,4.7086044E1,2.8653088E1,4.108146E1,1.4232029E1,1.983428E1,2.558406E1,3.4604195E1,1.6924816E1,0E0,7.457287E0,8.106364E0,5.664358E0,3.2971978E0,6.639015E0,0E0,0E0,0E0,0E0,0E0,0E0,0E0,0E0,0E0,0E0,0E0,0E0,0E0,0E0],"parents":[2147483647,0,0,1,1,2,2,3,3,4,4,5,5,6,6,7,7,8,8,10,10,11,11,12,12,13,13,14,14],"right_children":[2,4,6,8,10,12,14,16,18,-1,20,22,24,26,28,-1,-1,-1,-1,-1,-1,-1,-1,-1,-1,-1,-1,-1,-1],"split_conditions":[2.2718975E1,2.3833004E1,2.3E1,2.3E1,1E-45,1E-45,1E-45,2.0269358E1,1E-45,6.4858403E-3,9.96E2,1E-45,1.9E1,2E0,2.3612751E1,2.252078E-3,-1.0974655E-3,1.6495315E-3,-7.5435085E-4,-1.1753557E-2,-4.152644E-3,1.4618821E-3,-5.761926E-3,1.3100613E-3,-5.831165E-3,-0E0,-2.9254316E-3,-3.1345359E-3,-8.444189E-3],"split_indices":[8,7,0,0,25,4,26,8,26,0,15,26,0,3,8,0,0,0,0,0,0,0,0,0,0,0,0,0,0],"split_type":[0,0,0,0,1,1,1,0,1,0,0,1,0,0,0,0,0,0,0,0,0,0,0,0,0,0,0,0,0],"sum_hessian":[4.9924863E3,4.3409814E3,6.515049E2,4.1341113E3,2.0687015E2,2.9899542E2,3.5250943E2,2.1534963E3,1.9806151E3,1.1063937E1,1.9580621E2,2.1413853E2,8.485689E1,1.6343874E2,1.8907068E2,1.7850056E3,3.6849072E2,3.5562286E2,1.6249922E3,1.5844838E1,1.7996136E2,1.9768726E2,1.645128E1,1.0480877E1,7.437601E1,4.906782E1,1.1437092E2,3.55453E1,1.5352539E2],"tree_param":{"num_deleted":"0","num_feature":"32","num_nodes":"29","size_leaf_vector":"1"}},{"base_weights":[8.885693E-5,1.1605397E-1,-1.17202245E-1,1.6427459E-1,3.245809E-2,4.485013E-1,-1.3208716E-1,4.9761474E-2,2.2450326E-1,8.780869E-2,-1.321979E-1,7.191076E-3,1.3987098E-3,-8.1947304E-2,-4.3779767E-1,8.9943095E-4,-2.1779758E-3,2.436868E-3,-4.5234417E-3,-4.276092E-3,1.0442589E-3,-3.3717528E-3,1.9647529E-4,-4.0889365E-4,-1.6229749E-3,9.624038E-4,-4.6325745E-3],"categories":[3,0,0,2,0,0],"categories_nodes":[1,2,3,5,7,13],"categories_segments":[0,1,2,3,4,5],"categories_sizes":[1,1,1,1,1,1],"default_left":[0,1,0,0,0,1,0,1,0,0,0,0,0,1,0,0,0,0,0,0,0,0,0,0,0,0,0],"id":32,"left_children":[1,3,5,7,9,11,13,15,17,19,21,-1,-1,23,25,-1,-1,-1,-1,-1,-1,-1,-1,-1,-1,-1,-1],"loss_changes":[6.838681E1,1.0011967E1,2.0696335E1,1.07504425E1,8.468389E0,4.3394127E0,3.6775585E1,5.8573446E0,1.33197365E1,5.7034564E0,7.4903274E0,0E0,0E0,6.7019777E0,4.9905396E0,0E0,0E0,0E0,0E0,0E0,0E0,0E0,0E0,0E0,0E0,0E0,0E0],"parents":[2147483647,0,0,1,1,2,2,3,3,4,4,5,5,6,6,7,7,8,8,9,9,10,10,13,13,14,14],"right_children":[2,4,6,8,10,12,14,16,18,20,22,-1,-1,24,26,-1,-1,-1,-1,-1,-1,-1,-1,-1,-1,-1,-1],"split_conditions":[2.3E1,1E-45,1E-45,1E-45,2.2772672E0,1E-45,2.3749058E0,1E-45,2.5257287E0,8.07E2,2.4203682E0,7.191076E-3,1.3987098E-3,1E-45,2.4849067E0,8.9943095E-4,-2.1779758E-3,2.436868E-3,-4.5234417E-3,-4.276092E-3,1.0442589E-3,-3.3717528E-3,1.9647529E-4,-4.0889365E-4,-1.6229749E-3,9.624038E-4,-4.6325745E-3],"split_indices":[0,22,9,2,23,14,23,12,23,16,23,0,0,25,21,0,0,0,0,0,0,0,0,0,0,0,0],"split_type":[0,1,1,1,0,1,0,1,0,0,0,0,0,1,0,0,0,0,0,0,0,0,0,0,0,0,0],"sum_hessian":[5.0278867E3,2.5325215E3,2.4953652E3,1.5984916E3,9.3402997E2,6.224535E1,2.4331199E3,5.566849E2,1.0418066E3,7.035898E2,2.3044014E2,3.1432224E1,3.0813126E1,2.0931106E3,3.4000912E2,4.8725397E2,6.943095E1,1.014536E3,2.7270636E1,2.0088116E1,6.835017E2,1.00860794E2,1.2957935E2,1.3935067E3,6.996039E2,1.3683453E1,3.2632568E2],"tree_param":{"num_deleted":"0","num_feature":"32","num_nodes":"27","size_leaf_vector":"1"}},{"base_weights":[7.070269E-3,1.7512882E-1,-1.1257853E-1,2.2875877E-1,-0E0,-6.365455E-2,-6.625072E-1,3.2151183E-1,1.2494417E-1,-4.2094407E-3,2.3177402E-2,1.17239475E-1,-1.7505391E-1,1.2050113E-3,-7.06663E-1,9.0396043E-4,4.5112194E-3,1.3622524E-3,-2.4127837E-3,6.625831E-3,2.0241394E-5,6.0878317E-3,9.85893E-4,-1.8273502E-3,9.163673E-3,-9.794397E-3,-6.3507264E-3],"categories":[2,3,4,0,1,0,0],"categories_nodes":[0,5,7,11],"categories_segments":[0,3,5,6],"categories_sizes":[3,2,1,1],"default_left":[1,1,1,0,0,1,0,0,1,0,0,0,1,0,0,0,0,0,0,0,0,0,0,0,0,0,0],"id":33,"left_children":[1,3,5,7,9,11,13,15,17,-1,19,21,23,-1,25,-1,-1,-1,-1,-1,-1,-1,-1,-1,-1,-1,-1],"loss_changes":[1.0113207E2,1.9583672E1,7.817299E1,1.4972816E1,4.662906E0,5.435939E1,8.812538E0,2.4639458E1,3.0381231E0,0E0,5.6590953E0,8.675558E0,1.3277344E1,0E0,2.8008041E0,0E0,0E0,0E0,0E0,0E0,0E0,0E0,0E0,0E0,0E0,0E0,0E0],"parents":[2147483647,0,0,1,1,2,2,3,3,4,4,5,5,6,6,7,7,8,8,10,10,11,11,12,12,14,14],"right_children":[2,4,6,8,10,12,14,16,18,-1,20,22,24,-1,26,-1,-1,-1,-1,-1,-1,-1,-1,-1,-1,-1,-1],"split_conditions":[1E-45,2.0195578E1,2.4557753E1,2.3E1,7.33E2,1E-45,1.928938E1,1E-45,8.7E2,-4.2094407E-3,1.215E3,1E-45,1.28E3,1.2050113E-3,9.8E1,9.0396043E-4,4.5112194E-3,1.3622524E-3,-2.4127837E-3,6.625831E-3,2.0241394E-5,6.0878317E-3,9.85893E-4,-1.8273502E-3,9.163673E-3,-9.794397E-3,-6.3507264E-3],"split_indices":[26,8,8,0,15,24,5,2,15,0,15,9,15,0,31,0,0,0,0,0,0,0,0,0,0,0,0],"split_type":[1,0,0,0,0,1,0,1,0,0,0,1,0,0,0,0,0,0,0,0,0,0,0,0,0,0,0],"sum_hessian":[5.026313E3,2.0937656E3,2.9325474E3,1.6013481E3,4.9241754E2,2.6946497E3,2.3789789E2,8.4063226E2,7.607159E2,2.4887846E1,4.675297E2,1.0235681E3,1.6710814E3,1.1489641E1,2.2640825E2,3.0482047E2,5.358118E2,7.4063824E2,2.007765E1,1.3448254E1,4.5408142E2,3.544502E1,9.8812305E2,1.6603212E3,1.0760304E1,4.413769E1,1.8227055E2],"tree_param":{"num_deleted":"0","num_feature":"32","num_nodes":"27","size_leaf_vector":"1"}},{"base_weights":[-2.1060572E-3,2.239381E-2,-4.591858E-1,5.0028782E-2,-3.4980118E-1,-3.4572908E-1,-9.18036E-1,9.8090954E-2,-1.04995266E-1,-6.9884345E-2,-4.459401E-1,-9.5237065E-3,-2.4789186E-1,-1.1606761E0,-9.0504944E-4,7.8660273E-4,2.7370295E-3,-6.7913365E-3,-9.026414E-4,2.5002072E-3,-3.9338E-3,-5.3199595E-3,1.958218E-3,-1.1758321E-2,-1.7508934E-3,-7.4932883E-3,-1.4463421E-2],"categories":[],"categories_nodes":[],"categories_segments":[],"categories_sizes":[],"default_left":[1,1,0,1,0,0,0,1,0,0,1,0,0,0,0,0,0,0,0,0,0,0,0,0,0,0,0],"id":34,"left_children":[1,3,5,7,9,11,13,15,17,19,21,-1,23,25,-1,-1,-1,-1,-1,-1,-1,-1,-1,-1,-1,-1,-1],"loss_changes":[5.6901215E1,4.890257E1,1.2195305E1,3.3190056E1,8.314064E0,1.1207397E1,8.6892395E0,1.1269516E1,8.106437E0,9.101946E0,1.3679054E1,0E0,1.0907563E1,2.1824455E0,0E0,0E0,0E0,0E0,0E0,0E0,0E0,0E0,0E0,0E0,0E0,0E0,0E0],"parents":[2147483647,0,0,1,1,2,2,3,3,4,4,5,5,6,6,7,7,8,8,9,9,10,10,12,12,13,13],"right_children":[2,4,6,8,10,12,14,16,18,20,22,-1,24,26,-1,-1,-1,-1,-1,-1,-1,-1,-1,-1,-1,-1,-1],"split_conditions":[2.0545694E1,2.3495237E1,2.523634E1,2.0269358E1,3.295837E0,2.0811655E1,6.7E1,1.04E2,6.931472E-1,8E1,1.15E2,-9.5237065E-3,7.71E2,3.9E1,-9.0504944E-4,7.8660273E-4,2.7370295E-3,-6.7913365E-3,-9.026414E-4,2.5002072E-3,-3.9338E-3,-5.3199595E-3,1.958218E-3,-1.1758321E-2,-1.7508934E-3,-7.4932883E-3,-1.4463421E-2],"split_indices":[5,7,5,8,21,5,13,13,21,13,13,0,15,13,0,0,0,0,0,0,0,0,0,0,0,0,0],"split_type":[0,0,0,0,0,0,0,0,0,0,0,0,0,0,0,0,0,0,0,0,0,0,0,0,0,0,0],"sum_hessian":[5.0421704E3,4.783588E3,2.585827E2,4.4554707E3,3.2811722E2,2.0908145E2,4.9501244E1,3.4059705E3,1.0495001E3,8.6547005E1,2.4157022E2,2.7605373E1,1.8147607E2,3.7340275E1,1.2160969E1,3.0717986E3,3.3417184E2,2.4544786E1,1.0249553E3,4.19619E1,4.4585106E1,2.1438289E2,2.7187347E1,1.2191829E1,1.6928426E2,1.6753193E1,2.0587082E1],"tree_param":{"num_deleted":"0","num_feature":"32","num_nodes":"27","size_leaf_vector":"1"}},{"base_weights":[-1.3098077E-2,1.5613527E-2,-4.103947E-1,4.395973E-2,-3.947437E-1,-1.1905354E0,-3.4899572E-1,1.04691885E-1,-8.81357E-2,-0E0,-4.1790712E-1,-1.6124021E-2,-5.901058E-3,-2.9804975E-1,-8.1806E-1,1.2996034E-3,-1.5450786E-3,4.1209115E-3,-1.2622855E-3,-1.3366011E-2,-3.7078892E-3,-3.8988344E-4,-4.0655904E-3,-1.2088266E-2,-2.0349806E-3],"categories":[0,4,2,3,4],"categories_nodes":[4,7,13],"categories_segments":[0,1,2],"categories_sizes":[1,1,3],"default_left":[1,1,0,0,1,1,0,1,0,0,0,0,0,1,0,0,0,0,0,0,0,0,0,0,0],"id":35,"left_children":[1,3,5,7,9,11,13,15,17,-1,19,-1,-1,21,23,-1,-1,-1,-1,-1,-1,-1,-1,-1,-1],"loss_changes":[5.7575333E1,5.4000973E1,1.4751408E1,3.5098305E1,2.4283447E0,3.772972E0,6.4465675E0,1.962994E1,2.5860163E1,0E0,1.046183E1,0E0,0E0,7.635988E0,5.5702763E0,0E0,0E0,0E0,0E0,0E0,0E0,0E0,0E0,0E0,0E0],"parents":[2147483647,0,0,1,1,2,2,3,3,4,4,5,5,6,6,7,7,8,8,10,10,13,13,14,14],"right_children":[2,4,6,8,10,12,14,16,18,-1,20,-1,-1,22,24,-1,-1,-1,-1,-1,-1,-1,-1,-1,-1],"split_conditions":[1.9979189E1,2.2432302E1,7.71E2,4E0,1E-45,3.4339871E0,2.6298489E1,1E-45,1.6665936E1,-0E0,2.2518295E1,-1.6124021E-2,-5.901058E-3,1E-45,2.927796E1,1.2996034E-3,-1.5450786E-3,4.1209115E-3,-1.2622855E-3,-1.3366011E-2,-3.7078892E-3,-3.8988344E-4,-4.0655904E-3,-1.2088266E-2,-2.0349806E-3],"split_indices":[5,6,15,18,29,20,5,26,6,0,6,0,0,26,6,0,0,0,0,0,0,0,0,0,0],"split_type":[0,0,0,0,1,0,0,1,0,0,0,0,0,1,0,0,0,0,0,0,0,0,0,0,0],"sum_hessian":[5.012734E3,4.672553E3,3.401808E2,4.3729307E3,2.9962265E2,2.3617977E1,3.165628E2,3.0008384E3,1.3720923E3,1.8390694E1,2.8123193E2,1.2883557E1,1.0734421E1,2.874866E2,2.9076202E1,2.7378027E3,2.6303555E2,9.522813E1,1.2768641E3,1.2671452E1,2.685605E2,8.7592514E1,1.998941E2,1.6773804E1,1.2302401E1],"tree_param":{"num_deleted":"0","num_feature":"32","num_nodes":"25","size_leaf_vector":"1"}},{"base_weights":[-9.669555E-3,1.400151E-1,-1.460422E-1,1.6990998E-1,-1.2652396E-1,-5.9436806E-2,-4.397786E-1,9.660943E-1,1.6140401E-1,2.3167864E-3,-3.5151345E-1,1.5027893E-1,-1.1373688E-1,-5.707983E-1,-2.5103533E-1,1.3034536E-2,5.24562E-3,1.7224654E-3,-4.5588026E-3,-5.096295E-3,5.1009696E-4,-1.1857053E-3,-6.252886E-3,3.2072824E-3,-5.268252E-4,-9.664767E-4,-7.4813804E-3,-0E0,-5.9137736E-3,-1.0575901E-2,-1.9881963E-3],"categories":[0,1,0],"categories_nodes":[0,6],"categories_segments":[0,2],"categories_sizes":[2,1],"default_left":[1,1,1,0,1,0,0,1,1,0,0,0,0,0,0,0,0,0,0,0,0,0,0,0,0,0,0,0,0,0,0],"id":36,"left_children":[1,3,5,7,9,11,13,15,17,19,21,23,25,27,29,-1,-1,-1,-1,-1,-1,-1,-1,-1,-1,-1,-1,-1,-1,-1,-1],"loss_changes":[1.0211518E2,1.901744E1,6.617607E1,1.339381E1,7.212748E0,2.304414E1,1.3870209E1,1.356226E0,1.3926445E1,3.2245367E0,4.934021E0,1.4558261E1,1.6649864E1,4.139412E0,9.127154E0,0E0,0E0,0E0,0E0,0E0,0E0,0E0,0E0,0E0,0E0,0E0,0E0,0E0,0E0,0E0,0E0],"parents":[2147483647,0,0,1,1,2,2,3,3,4,4,5,5,6,6,7,7,8,8,9,9,10,10,11,11,12,12,13,13,14,14],"right_children":[2,4,6,8,10,12,14,16,18,20,22,24,26,28,30,-1,-1,-1,-1,-1,-1,-1,-1,-1,-1,-1,-1,-1,-1,-1,-1],"split_conditions":[1E-45,2.1208448E1,2.0811655E1,1.4821342E1,2.2222221E1,1.8426535E1,1E-45,1.54652195E1,2.3833004E1,2.1333334E1,2E0,4E0,5E0,2.1359915E1,5.14E2,1.3034536E-2,5.24562E-3,1.7224654E-3,-4.5588026E-3,-5.096295E-3,5.1009696E-4,-1.1857053E-3,-6.252886E-3,3.2072824E-3,-5.268252E-4,-9.664767E-4,-7.4813804E-3,-0E0,-5.9137736E-3,-1.0575901E-2,-1.9881963E-3],"split_indices":[24,6,6,6,8,6,27,7,7,6,3,18,18,7,15,0,0,0,0,0,0,0,0,0,0,0,0,0,0,0,0],"split_type":[1,0,0,0,0,0,1,0,0,0,0,0,0,0,0,0,0,0,0,0,0,0,0,0,0,0,0,0,0,0,0],"sum_hessian":[5.00217E3,2.381198E3,2.6209717E3,2.1444346E3,2.3676338E2,2.0268041E3,5.9416754E2,2.1413113E1,2.1230215E3,1.4773045E2,8.9032936E1,4.1306113E2,1.6137429E3,3.4757404E2,2.4659352E2,1.0843566E1,1.0569546E1,2.0879736E3,3.5047832E1,1.1038857E1,1.3669159E2,5.008491E1,3.894802E1,2.2718762E2,1.858735E2,1.5729591E3,4.0783855E1,1.1933783E1,3.3564023E2,1.3817434E1,2.3277608E2],"tree_param":{"num_deleted":"0","num_feature":"32","num_nodes":"31","size_leaf_vector":"1"}},{"base_weights":[2.9362016E-3,1.3479792E-1,-1.1425047E-1,2.2976615E-1,9.939894E-3,-3.409739E-2,-3.342941E-1,2.851026E-1,8.69126E-2,-6.1163716E-3,2.0148544E-2,1.3386927E-2,-2.2095746E-1,-1.7714827E-1,-4.7503537E-1,2.2607334E-3,3.6372873E-3,1.4785279E-3,-2.5695674E-3,2.9433083E-3,-1.06849875E-4,-3.5115523E-4,2.1815794E-3,-3.2537282E-3,-4.6950718E-4,-1.3994293E-3,-1.0959482E-2,-5.155378E-3,-0E0],"categories":[0,1],"categories_nodes":[0],"categories_segments":[0],"categories_sizes":[2],"default_left":[1,0,1,0,0,0,0,0,0,0,0,1,1,1,1,0,0,0,0,0,0,0,0,0,0,0,0,0,0],"id":37,"left_children":[1,3,5,7,9,11,13,15,17,-1,19,21,23,25,27,-1,-1,-1,-1,-1,-1,-1,-1,-1,-1,-1,-1,-1,-1],"loss_changes":[7.756552E1,2.7807098E1,4.642266E1,1.0211868E1,5.9216876E0,1.7491838E1,1.4939835E1,3.8650894E0,7.8312387E0,0E0,8.834216E0,1.5567694E1,6.8765564E0,1.0264559E1,6.610367E0,0E0,0E0,0E0,0E0,0E0,0E0,0E0,0E0,0E0,0E0,0E0,0E0,0E0,0E0],"parents":[2147483647,0,0,1,1,2,2,3,3,4,4,5,5,6,6,7,7,8,8,10,10,11,11,12,12,13,13,14,14],"right_children":[2,4,6,8,10,12,14,16,18,-1,20,22,24,26,28,-1,-1,-1,-1,-1,-1,-1,-1,-1,-1,-1,-1,-1,-1],"split_conditions":[1E-45,2.3E1,2.0342798E1,4E0,2.07E2,2.3025851E0,4.5108595E0,1.7917595E0,1.23E2,-6.1163716E-3,1.9223375E1,9.1E1,6.7E1,2.6298489E1,1.17E2,2.2607334E-3,3.6372873E-3,1.4785279E-3,-2.5695674E-3,2.9433083E-3,-1.06849875E-4,-3.5115523E-4,2.1815794E-3,-3.2537282E-3,-4.6950718E-4,-1.3994293E-3,-1.0959482E-2,-5.155378E-3,-0E0],"split_indices":[24,0,6,18,15,23,20,23,13,0,5,13,13,5,13,0,0,0,0,0,0,0,0,0,0,0,0,0,0],"split_type":[1,0,0,0,0,0,0,0,0,0,0,0,0,0,0,0,0,0,0,0,0,0,0,0,0,0,0,0,0],"sum_hessian":[5.018281E3,2.3653052E3,2.6529756E3,1.3389042E3,1.0264011E3,1.9479657E3,7.050098E2,9.600171E2,3.7888705E2,1.499267E1,1.01140845E3,1.548997E3,3.9896872E2,3.3646017E2,3.6854965E2,5.5563025E2,4.0438687E2,3.2432437E2,5.4562664E1,1.0551144E2,9.05897E2,1.2484188E3,3.005781E2,2.457482E2,1.5322052E2,3.244231E2,1.2037098E1,3.3778543E2,3.0764202E1],"tree_param":{"num_deleted":"0","num_feature":"32","num_nodes":"29","size_leaf_vector":"1"}},{"base_weights":[-8.858283E-3,1.2390703E-1,-1.44947E-1,2.6026413E-1,1.3003416E-2,-8.9664906E-2,-5.3072304E-1,2.0002358E-1,3.7400174E-1,-6.023604E-2,9.487383E-2,-4.8031766E-2,-3.9425528E-1,-5.978272E-1,1.8007824E-1,2.6375144E-3,4.287833E-4,4.3098144E-3,9.969613E-4,5.2960345E-4,-2.7020392E-3,4.006313E-3,4.555255E-4,6.7867985E-4,-1.4238275E-3,-3.6145735E-4,-6.2049674E-3,-0E0,-6.394165E-3,4.822199E-3,-2.1277124E-4],"categories":[2,4,3,4,1,2,3,4,2,3,4,1,2,3,4],"categories_nodes":[7,9,10,11,13],"categories_segments":[0,2,4,8,11],"categories_sizes":[2,2,4,3,4],"default_left":[0,0,1,1,1,0,1,1,1,1,1,1,0,1,0,0,0,0,0,0,0,0,0,0,0,0,0,0,0,0,0],"id":38,"left_children":[1,3,5,7,9,11,13,15,17,19,21,23,25,27,29,-1,-1,-1,-1,-1,-1,-1,-1,-1,-1,-1,-1,-1,-1,-1,-1],"loss_changes":[8.981569E1,3.7713272E1,5.1798187E1,7.117035E0,8.3651905E0,2.6848831E1,1.5005112E1,7.10083E0,5.454403E0,1.7493269E1,9.543638E0,2.0810478E1,2.007618E1,6.7788544E0,1.9881891E0,0E0,0E0,0E0,0E0,0E0,0E0,0E0,0E0,0E0,0E0,0E0,0E0,0E0,0E0,0E0,0E0],"parents":[2147483647,0,0,1,1,2,2,3,3,4,4,5,5,6,6,7,7,8,8,9,9,10,10,11,11,12,12,13,13,14,14],"right_children":[2,4,6,8,10,12,14,16,18,20,22,24,26,28,30,-1,-1,-1,-1,-1,-1,-1,-1,-1,-1,-1,-1,-1,-1,-1,-1],"split_conditions":[2.3E1,3E0,2.3495237E1,3E1,6.4E1,2.3749058E0,1.18E2,1E-45,2.1778435E1,1E-45,1E-45,1E-45,2.2829964E1,1E-45,2.5103878E1,2.6375144E-3,4.287833E-4,4.3098144E-3,9.969613E-4,5.2960345E-4,-2.7020392E-3,4.006313E-3,4.555255E-4,6.7867985E-4,-1.4238275E-3,-3.6145735E-4,-6.2049674E-3,-0E0,-6.394165E-3,4.822199E-3,-2.1277124E-4],"split_indices":[0,18,7,13,13,23,13,26,7,26,26,26,7,26,7,0,0,0,0,0,0,0,0,0,0,0,0,0,0,0,0],"split_type":[0,0,0,0,0,0,0,1,0,1,1,1,0,1,0,0,0,0,0,0,0,0,0,0,0,0,0,0,0,0,0],"sum_hessian":[4.9698345E3,2.5119153E3,2.4579192E3,1.1226167E3,1.3892986E3,2.1521223E3,3.0579688E2,7.3967267E2,3.8294403E2,7.268568E2,6.624418E2,1.8962296E3,2.5589275E2,2.80705E2,2.5091873E1,5.217248E2,2.1794789E2,3.1405594E2,6.888807E1,4.6916745E2,2.5768936E2,8.918856E1,5.732532E2,8.461868E2,1.0500427E3,1.0078903E2,1.5510371E2,1.8749187E1,2.619558E2,1.2015116E1,1.3076758E1],"tree_param":{"num_deleted":"0","num_feature":"32","num_nodes":"31","size_leaf_vector":"1"}},{"base_weights":[-7.5157746E-3,3.056102E-2,-3.312812E-1,1.45508E-1,-5.623356E-2,-1.1630696E-1,-5.6899416E-1,2.0264556E-1,-1.6280977E-2,2.8211823E-2,-1.5078154E-1,7.88748E-2,-3.2993785E-1,-1.607168E-3,-6.0120744E-1,2.8733262E-3,1.3797937E-3,-3.946635E-4,6.5442044E-3,-4.581676E-4,1.2111566E-3,-1.1870323E-3,-3.0873986E-3,1.8098588E-3,-4.213074E-3,1.2238546E-3,-4.7616144E-3,-4.6084155E-3,-9.585134E-3],"categories":[2,3,4,3,4,0,0,4],"categories_nodes":[1,2,8,9,10],"categories_segments":[0,3,5,6,7],"categories_sizes":[3,2,1,1,1],"default_left":[1,1,1,0,0,0,0,0,1,0,1,0,0,0,0,0,0,0,0,0,0,0,0,0,0,0,0,0,0],"id":39,"left_children":[1,3,5,7,9,11,13,15,17,19,21,23,25,-1,27,-1,-1,-1,-1,-1,-1,-1,-1,-1,-1,-1,-1,-1,-1],"loss_changes":[6.221372E1,4.489425E1,2.646196E1,1.8093132E1,2.0512964E1,1.1975981E1,2.5260239E0,7.438854E0,7.1760454E0,9.314787E0,5.705559E0,7.1406965E0,9.395562E0,0E0,1.0086884E1,0E0,0E0,0E0,0E0,0E0,0E0,0E0,0E0,0E0,0E0,0E0,0E0,0E0,0E0],"parents":[2147483647,0,0,1,1,2,2,3,3,4,4,5,5,6,6,7,7,8,8,9,9,10,10,11,11,12,12,14,14],"right_children":[2,4,6,8,10,12,14,16,18,20,22,24,26,-1,28,-1,-1,-1,-1,-1,-1,-1,-1,-1,-1,-1,-1,-1,-1],"split_conditions":[2.3283419E1,1E-45,1E-45,4E0,2E0,2E0,2.4849067E0,2E0,1E-45,1E-45,1E-45,2.6709402E1,6.00001E0,-1.607168E-3,2.718163E1,2.8733262E-3,1.3797937E-3,-3.946635E-4,6.5442044E-3,-4.581676E-4,1.2111566E-3,-1.1870323E-3,-3.0873986E-3,1.8098588E-3,-4.213074E-3,1.2238546E-3,-4.7616144E-3,-4.6084155E-3,-9.585134E-3],"split_indices":[8,26,26,18,3,3,21,3,10,27,26,8,30,0,8,0,0,0,0,0,0,0,0,0,0,0,0,0,0],"split_type":[0,1,1,0,0,0,0,0,1,1,1,0,0,0,0,0,0,0,0,0,0,0,0,0,0,0,0,0,0],"sum_hessian":[5.022147E3,4.490909E3,5.31238E2,1.9370623E3,2.5538467E3,2.8117807E2,2.5005992E2,1.436075E3,5.0098734E2,1.3434114E3,1.2104353E3,1.444908E2,1.3668727E2,2.056155E1,2.2949838E2,6.150738E2,8.2100116E2,4.8569772E2,1.5289622E1,7.4166864E2,6.0174274E2,1.0113898E3,1.9904558E2,1.2165987E2,2.2830936E1,3.1722065E1,1.049652E2,1.667953E2,6.270308E1],"tree_param":{"num_deleted":"0","num_feature":"32","num_nodes":"29","size_leaf_vector":"1"}},{"base_weights":[8.74769E-3,6.522157E-2,-2.6807132E-1,1.6708922E-1,-4.4978138E-2,-2.2659895E-1,-8.4653E-1,4.395455E-1,1.3044259E-1,-2.1582676E-2,-5.714423E-1,-6.9378324E-2,-3.4186316E-1,-2.3644434E-3,-9.61332E-3,3.151676E-4,5.3159934E-3,1.8480959E-3,-2.7304035E-4,-5.6831293E-5,-5.985516E-3,-7.0883804E-3,1.7459048E-3,1.0536164E-3,-3.2919885E-3,9.625663E-4,-3.8242792E-3],"categories":[],"categories_nodes":[],"categories_segments":[],"categories_sizes":[],"default_left":[1,0,1,0,1,0,1,0,1,1,1,1,0,0,0,0,0,0,0,0,0,0,0,0,0,0,0],"id":40,"left_children":[1,3,5,7,9,11,13,15,17,19,21,23,25,-1,-1,-1,-1,-1,-1,-1,-1,-1,-1,-1,-1,-1,-1],"loss_changes":[7.8275024E1,4.6960648E1,1.9258907E1,2.1124828E1,2.403476E1,1.395055E1,2.6581383E0,8.991135E0,1.6611187E1,1.6974804E1,9.069462E0,1.5611902E1,8.348103E0,0E0,0E0,0E0,0E0,0E0,0E0,0E0,0E0,0E0,0E0,0E0,0E0,0E0,0E0],"parents":[2147483647,0,0,1,1,2,2,3,3,4,4,5,5,6,6,7,7,8,8,9,9,10,10,11,11,12,12],